{"learner":{"attributes":{},"feature_names":["lag_1_week","lag_2_week","lag_3_week","lag_4_week","baseline_ma","baseline_std","salary_payment","onpromotion","is_month_end","is_month_start","month","quarter"],"feature_types":["float","float","float","float","float","float","float","float","int","int","float","float"],"gradient_booster":{"model":{"gbtree_model_param":{"num_parallel_tree":"1","num_trees":"100"},"iteration_indptr":[0,1,2,3,4,5,6,7,8,9,10,11,12,13,14,15,16,17,18,19,20,21,22,23,24,25,26,27,28,29,30,31,32,33,34,35,36,37,38,39,40,41,42,43,44,45,46,47,48,49,50,51,52,53,54,55,56,57,58,59,60,61,62,63,64,65,66,67,68,69,70,71,72,73,74,75,76,77,78,79,80,81,82,83,84,85,86,87,88,89,90,91,92,93,94,95,96,97,98,99,100],"tree_info":[0,0,0,0,0,0,0,0,0,0,0,0,0,0,0,0,0,0,0,0,0,0,0,0,0,0,0,0,0,0,0,0,0,0,0,0,0,0,0,0,0,0,0,0,0,0,0,0,0,0,0,0,0,0,0,0,0,0,0,0,0,0,0,0,0,0,0,0,0,0,0,0,0,0,0,0,0,0,0,0,0,0,0,0,0,0,0,0,0,0,0,0,0,0,0,0,0,0,0,0],"trees":[{"base_weights":[2.3688188E2,-3.087608E3,3.7706426E3,-4.8007583E3,-1.9408478E3,2.1996147E3,5.5095366E3,-5.6800166E3,-3.9782622E3,-2.4453708E3,-8.068417E2,1.4024022E3,3.3028118E3,4.9573286E3,1.064186E4,-2.0768695E2,-1.752153E2,-1.3936156E2,-8.507406E1,-9.2926254E1,-1.0722814E0,-1.9561934E1,-1.8263643E2,-5.313054E1,6.074404E1,8.722886E1,1.2800244E2,1.917364E2,5.8821354E1,9.3833435E2,2.962639E2],"categories":[],"categories_nodes":[],"categories_segments":[],"categories_sizes":[],"default_left":[0,0,0,0,0,0,0,0,0,0,0,0,0,1,0,0,0,0,0,0,0,0,0,0,0,0,0,0,0,0,0],"id":0,"left_children":[1,3,5,7,9,11,13,15,17,19,21,23,25,27,29,-1,-1,-1,-1,-1,-1,-1,-1,-1,-1,-1,-1,-1,-1,-1,-1],"loss_changes":[1.0009777E10,8.6226995E8,1.1280297E9,1.267735E8,1.5043283E8,1.907543E8,5.543414E8,1.7565952E7,1.1527296E7,1.1639859E8,8.645633E7,1.3743062E8,2.9505152E7,3.6408218E8,6.313093E8,0E0,0E0,0E0,0E0,0E0,0E0,0E0,0E0,0E0,0E0,0E0,0E0,0E0,0E0,0E0,0E0],"parents":[2147483647,0,0,1,1,2,2,3,3,4,4,5,5,6,6,7,7,8,8,9,9,10,10,11,11,12,12,13,13,14,14],"right_children":[2,4,6,8,10,12,14,16,18,20,22,24,26,28,30,-1,-1,-1,-1,-1,-1,-1,-1,-1,-1,-1,-1,-1,-1,-1,-1],"split_conditions":[1.2648E4,9.304E3,1.6802E4,8.05E3,1.1214E4,1.549E4,1.87E2,2.0957915E2,1.89E2,1.66E2,1.62E2,2E0,1.5329E4,1.4989468E3,1.1863818E2,-2.0768695E2,-1.752153E2,-1.3936156E2,-8.507406E1,-9.2926254E1,-1.0722814E0,-1.9561934E1,-1.8263643E2,-5.313054E1,6.074404E1,8.722886E1,1.2800244E2,1.917364E2,5.8821354E1,9.3833435E2,2.962639E2],"split_indices":[1,1,1,1,1,2,7,5,7,7,7,10,1,5,5,0,0,0,0,0,0,0,0,0,0,0,0,0,0,0,0],"split_type":[0,0,0,0,0,0,0,0,0,0,0,0,0,0,0,0,0,0,0,0,0,0,0,0,0,0,0,0,0,0,0],"sum_hessian":[8.52E2,4.39E2,4.13E2,1.76E2,2.63E2,2.17E2,1.96E2,8.5E1,9.1E1,1.82E2,8.1E1,1.26E2,9.1E1,1.77E2,1.9E1,5.1E1,3.4E1,8.6E1,5E0,1.64E2,1.8E1,7.7E1,4E0,1.4E1,1.12E2,3.3E1,5.8E1,1.48E2,2.9E1,2E0,1.7E1],"tree_param":{"num_deleted":"0","num_feature":"12","num_nodes":"31","size_leaf_vector":"1"}},{"base_weights":[-6.645281E1,-2.9274504E3,3.7632896E3,-4.6289478E3,-1.7002557E3,2.3995398E3,5.4674204E3,-5.2866333E3,-3.9186594E3,-2.385374E3,-5.866671E2,-1.9169661E3,2.5930173E3,1.1418035E4,5.1683296E3,-1.7640262E2,-3.5193015E2,-1.8689113E2,-1.3272316E2,-8.7694916E1,-1.5967018E1,9.325885E1,-2.7691908E1,-1.4706253E2,-2.4652884E1,2.2170389E2,8.337583E1,7.683279E2,1.629622E2,8.8771965E1,1.9356291E2],"categories":[],"categories_nodes":[],"categories_segments":[],"categories_sizes":[],"default_left":[0,0,1,0,0,0,0,0,0,0,0,0,0,0,0,0,0,0,0,0,0,0,0,0,0,0,0,0,0,0,0],"id":1,"left_children":[1,3,5,7,9,11,13,15,17,19,21,23,25,27,29,-1,-1,-1,-1,-1,-1,-1,-1,-1,-1,-1,-1,-1,-1,-1,-1],"loss_changes":[9.686372E9,1.05642035E9,8.7821875E8,9.856512E7,2.2428403E8,1.7551168E8,2.9769267E8,7.638938E7,6.96192E6,6.018317E7,8.1904696E7,2.5560498E7,1.2520653E8,5.8524896E8,1.9657651E8,0E0,0E0,0E0,0E0,0E0,0E0,0E0,0E0,0E0,0E0,0E0,0E0,0E0,0E0,0E0,0E0],"parents":[2147483647,0,0,1,1,2,2,3,3,4,4,5,5,6,6,7,7,8,8,9,9,10,10,11,11,12,12,13,13,14,14],"right_children":[2,4,6,8,10,12,14,16,18,20,22,24,26,28,30,-1,-1,-1,-1,-1,-1,-1,-1,-1,-1,-1,-1,-1,-1,-1,-1],"split_conditions":[1.3213E4,9.397E3,1.6948479E4,8.56525E3,1.1226E4,1.1571E4,1.7061334E4,8.909E3,7.796E3,1.85E2,9.756E3,8.838E3,1.2611E4,1.5547E4,1.7423854E4,-1.7640262E2,-3.5193015E2,-1.8689113E2,-1.3272316E2,-8.7694916E1,-1.5967018E1,9.325885E1,-2.7691908E1,-1.4706253E2,-2.4652884E1,2.2170389E2,8.337583E1,7.683279E2,1.629622E2,8.8771965E1,1.9356291E2],"split_indices":[1,1,4,4,1,3,4,1,3,7,3,3,2,3,4,0,0,0,0,0,0,0,0,0,0,0,0,0,0,0,0],"split_type":[0,0,0,0,0,0,0,0,0,0,0,0,0,0,0,0,0,0,0,0,0,0,0,0,0,0,0,0,0,0,0],"sum_hessian":[8.84E2,5.06E2,3.78E2,2.12E2,2.94E2,2.1E2,1.68E2,1.1E2,1.02E2,1.82E2,1.12E2,9E0,2.01E2,8E0,1.6E2,1.07E2,3E0,3E0,9.9E1,1.67E2,1.5E1,7E0,1.05E2,3E0,6E0,8E0,1.93E2,3E0,5E0,2.5E1,1.35E2],"tree_param":{"num_deleted":"0","num_feature":"12","num_nodes":"31","size_leaf_vector":"1"}},{"base_weights":[-2.9298233E1,-3.0017773E3,3.333701E3,-4.5463433E3,-1.9343334E3,1.5650665E3,4.684559E3,-5.3882007E3,-3.9330981E3,-2.2458464E3,-5.321078E2,-4.601619E3,1.7807633E3,3.5584531E3,5.623654E3,-1.8760141E2,-1.10513145E2,7.372584E1,-1.3873016E2,-7.322449E1,-1.337295E2,-3.339992E1,7.465605E1,-6.654506E1,-1.7562949E2,4.88769E1,1.3256113E2,1.0477165E2,1.385531E2,2.0873447E2,1.0218941E2],"categories":[],"categories_nodes":[],"categories_segments":[],"categories_sizes":[],"default_left":[0,0,1,0,0,0,0,0,0,0,0,0,0,0,0,0,0,0,0,0,0,0,0,0,0,0,0,0,0,0,0],"id":2,"left_children":[1,3,5,7,9,11,13,15,17,19,21,23,25,27,29,-1,-1,-1,-1,-1,-1,-1,-1,-1,-1,-1,-1,-1,-1,-1,-1],"loss_changes":[8.75733E9,7.664906E8,9.818281E8,9.761075E7,1.2010042E8,2.3697005E8,2.459607E8,1.4032384E7,7.589261E7,4.082445E7,5.9956064E7,8.108768E6,1.2730381E8,2.5429888E7,1.5545677E8,0E0,0E0,0E0,0E0,0E0,0E0,0E0,0E0,0E0,0E0,0E0,0E0,0E0,0E0,0E0,0E0],"parents":[2147483647,0,0,1,1,2,2,3,3,4,4,5,5,6,6,7,7,8,8,9,9,10,10,11,11,12,12,13,13,14,14],"right_children":[2,4,6,8,10,12,14,16,18,20,22,24,26,28,30,-1,-1,-1,-1,-1,-1,-1,-1,-1,-1,-1,-1,-1,-1,-1,-1],"split_conditions":[1.2648E4,9.304E3,1.5724458E4,7.768E3,1.1696E4,9.397E3,1.7398E4,8.609125E3,6.361E3,1.2E1,1.1E1,1.3698E4,1.1E1,1.6903271E4,1.5752444E3,-1.8760141E2,-1.10513145E2,7.372584E1,-1.3873016E2,-7.322449E1,-1.337295E2,-3.339992E1,7.465605E1,-6.654506E1,-1.7562949E2,4.88769E1,1.3256113E2,1.0477165E2,1.385531E2,2.0873447E2,1.0218941E2],"split_indices":[1,1,4,1,1,3,1,4,2,10,10,1,10,4,5,0,0,0,0,0,0,0,0,0,0,0,0,0,0,0,0],"split_type":[0,0,0,0,0,0,0,0,0,0,0,0,0,0,0,0,0,0,0,0,0,0,0,0,0,0,0,0,0,0,0],"sum_hessian":[8.76E2,4.65E2,4.11E2,1.9E2,2.75E2,1.78E2,2.33E2,8E1,1.1E2,2.25E2,5E1,6E0,1.72E2,1.06E2,1.27E2,7.7E1,3E0,2E0,1.08E2,2.11E2,1.4E1,4.3E1,7E0,1E0,5E0,1.47E2,2.5E1,5.2E1,5.4E1,1.08E2,1.9E1],"tree_param":{"num_deleted":"0","num_feature":"12","num_nodes":"31","size_leaf_vector":"1"}},{"base_weights":[8.031727E1,-2.498954E3,3.8737117E3,-4.3085728E3,-1.4304016E3,2.240252E3,5.4618164E3,-5.383211E3,-3.8336487E3,-2.1870745E3,-5.6612646E2,-2.4159155E3,2.5490884E3,6.17353E3,2.6705767E3,-1.9079527E2,-1.4369421E2,2.4513489E1,-1.3260237E2,-8.225431E1,3.4969168E0,-1.11611185E1,-1.5286891E2,-1.518222E2,-2.4982317E1,6.45707E1,1.2109801E2,1.8143456E2,3.6379047E2,-6.1823296E1,1.10188805E2],"categories":[],"categories_nodes":[],"categories_segments":[],"categories_sizes":[],"default_left":[0,0,0,0,0,0,0,0,0,0,0,0,1,0,0,0,0,0,0,0,0,0,0,0,0,0,0,0,0,0,0],"id":3,"left_children":[1,3,5,7,9,11,13,15,17,19,21,23,25,27,29,-1,-1,-1,-1,-1,-1,-1,-1,-1,-1,-1,-1,-1,-1,-1,-1],"loss_changes":[8.679015E9,1.02087296E9,9.3105306E8,9.956531E7,2.1710048E8,2.546944E8,3.6121293E8,1.2449408E7,2.0993792E7,8.589498E7,1.4514048E8,3.733815E7,1.0848602E8,5.6610765E8,9.009736E7,0E0,0E0,0E0,0E0,0E0,0E0,0E0,0E0,0E0,0E0,0E0,0E0,0E0,0E0,0E0,0E0],"parents":[2147483647,0,0,1,1,2,2,3,3,4,4,5,5,6,6,7,7,8,8,9,9,10,10,11,11,12,12,13,13,14,14],"right_children":[2,4,6,8,10,12,14,16,18,20,22,24,26,28,30,-1,-1,-1,-1,-1,-1,-1,-1,-1,-1,-1,-1,-1,-1,-1,-1],"split_conditions":[1.3832E4,9.397E3,1.6907E4,7.463E3,1.1226E4,1.2175E4,1.4989468E3,8.242E3,6.361E3,1.73E2,1.2E1,9.178E3,1.5762417E4,1.69E2,1.4389E4,-1.9079527E2,-1.4369421E2,2.4513489E1,-1.3260237E2,-8.225431E1,3.4969168E0,-1.11611185E1,-1.5286891E2,-1.518222E2,-2.4982317E1,6.45707E1,1.2109801E2,1.8143456E2,3.6379047E2,-6.1823296E1,1.10188805E2],"split_indices":[0,1,1,1,1,3,5,0,2,7,10,2,4,7,2,0,0,0,0,0,0,0,0,0,0,0,0,0,0,0,0],"split_type":[0,0,0,0,0,0,0,0,0,0,0,0,0,0,0,0,0,0,0,0,0,0,0,0,0,0,0,0,0,0,0],"sum_hessian":[8.87E2,5.28E2,3.59E2,1.96E2,3.32E2,1.77E2,1.82E2,6E1,1.36E2,1.77E2,1.55E2,1.1E1,1.66E2,1.45E2,3.7E1,5.2E1,8E0,1E0,1.35E2,1.62E2,1.5E1,1.46E2,9E0,5E0,6E0,9.9E1,6.7E1,1.21E2,2.4E1,4E0,3.3E1],"tree_param":{"num_deleted":"0","num_feature":"12","num_nodes":"31","size_leaf_vector":"1"}},{"base_weights":[3.8535233E1,-2.6691807E3,3.2569827E3,-4.1652446E3,-1.6348726E3,2.016924E3,4.8065825E3,-5.235084E3,-3.6122122E3,-2.1674106E3,-7.329487E2,-2.900702E3,2.3079175E3,4.008789E3,8.734365E3,-1.7544206E2,-2.3893478E2,7.039464E1,-1.2704764E2,-8.3530846E1,2.1528048E1,-3.9932022E1,8.29526E0,-1.5979124E2,-3.873959E1,6.8890915E1,1.7809373E2,1.416733E2,-4.5253217E2,5.0443082E2,1.3246829E2],"categories":[],"categories_nodes":[],"categories_segments":[],"categories_sizes":[],"default_left":[0,0,1,0,0,0,0,0,0,0,0,0,0,0,0,0,0,0,0,0,0,0,0,0,0,0,0,0,0,0,0],"id":4,"left_children":[1,3,5,7,9,11,13,15,17,19,21,23,25,27,29,-1,-1,-1,-1,-1,-1,-1,-1,-1,-1,-1,-1,-1,-1,-1,-1],"loss_changes":[7.38169E9,7.116708E8,7.434701E8,1.1080499E8,1.3061325E8,3.0784422E8,5.3823616E8,1.2295296E7,6.569229E7,1.2856038E8,4.2524864E7,3.7334744E7,1.7475994E8,3.044992E8,8.4373146E8,0E0,0E0,0E0,0E0,0E0,0E0,0E0,0E0,0E0,0E0,0E0,0E0,0E0,0E0,0E0,0E0],"parents":[2147483647,0,0,1,1,2,2,3,3,4,4,5,5,6,6,7,7,8,8,9,9,10,10,11,11,12,12,13,13,14,14],"right_children":[2,4,6,8,10,12,14,16,18,20,22,24,26,28,30,-1,-1,-1,-1,-1,-1,-1,-1,-1,-1,-1,-1,-1,-1,-1,-1],"split_conditions":[1.2884E4,9.304E3,1.6612604E4,7.463E3,1.1214E4,1.0948E4,1.7E2,7.375E3,6.361E3,1.66E2,1.243E4,9.205E3,1.8029E4,1.69E2,1.7946E4,-1.7544206E2,-2.3893478E2,7.039464E1,-1.2704764E2,-8.3530846E1,2.1528048E1,-3.9932022E1,8.29526E0,-1.5979124E2,-3.873959E1,6.8890915E1,1.7809373E2,1.416733E2,-4.5253217E2,5.0443082E2,1.3246829E2],"split_indices":[1,1,4,1,1,3,7,1,2,7,2,3,1,7,3,0,0,0,0,0,0,0,0,0,0,0,0,0,0,0,0],"split_type":[0,0,0,0,0,0,0,0,0,0,0,0,0,0,0,0,0,0,0,0,0,0,0,0,0,0,0,0,0,0,0],"sum_hessian":[8.47E2,4.6E2,3.87E2,1.88E2,2.72E2,2.15E2,1.72E2,6.4E1,1.24E2,1.71E2,1.01E2,1.2E1,2.03E2,1.43E2,2.9E1,6E1,4E0,2E0,1.22E2,1.56E2,1.5E1,7E1,3.1E1,6E0,6E0,1.84E2,1.9E1,1.42E2,1E0,1.3E1,1.6E1],"tree_param":{"num_deleted":"0","num_feature":"12","num_nodes":"31","size_leaf_vector":"1"}},{"base_weights":[1.1293257E1,-2.7588066E3,3.2981787E3,-4.0202734E3,-1.5838965E3,2.0602441E3,5.209353E3,-4.687908E3,-3.3037058E3,-2.1006643E3,-6.661689E2,1.1164061E3,2.9732546E3,-2.9026433E3,5.4204565E3,-1.5587602E2,-2.1954904E2,-9.780116E1,-1.2161948E2,-1.0802482E2,-6.0207638E1,2.5297809E2,-2.6038969E1,6.6820274E1,5.642879E0,8.817911E1,1.2095289E2,-1.25009026E2,-2.193262E1,1.7320647E2,3.224357E2],"categories":[],"categories_nodes":[],"categories_segments":[],"categories_sizes":[],"default_left":[0,0,0,0,0,1,0,0,0,0,0,0,0,0,0,0,0,0,0,0,0,0,0,0,0,0,0,0,0,0,0],"id":5,"left_children":[1,3,5,7,9,11,13,15,17,19,21,23,25,27,29,-1,-1,-1,-1,-1,-1,-1,-1,-1,-1,-1,-1,-1,-1,-1,-1],"loss_changes":[8.0037023E9,7.0684646E8,9.508941E8,1.0968243E8,1.1711386E8,2.101998E8,2.7096422E8,2.8248576E7,1.195712E7,5.705152E7,6.691367E7,9.508995E7,2.7389312E7,6.705352E6,2.251561E8,0E0,0E0,0E0,0E0,0E0,0E0,0E0,0E0,0E0,0E0,0E0,0E0,0E0,0E0,0E0,0E0],"parents":[2147483647,0,0,1,1,2,2,3,3,4,4,5,5,6,6,7,7,8,8,9,9,10,10,11,11,12,12,13,13,14,14],"right_children":[2,4,6,8,10,12,14,16,18,20,22,24,26,28,30,-1,-1,-1,-1,-1,-1,-1,-1,-1,-1,-1,-1,-1,-1,-1,-1],"split_conditions":[1.2797E4,9.64E3,1.7357E4,8.56525E3,1.1214E4,1.527175E4,1.1383E4,1.2E1,1.3E1,9.773E3,8.108E3,1.13E2,1.6773438E4,1.25530205E4,1.95E2,-1.5587602E2,-2.1954904E2,-9.780116E1,-1.2161948E2,-1.0802482E2,-6.0207638E1,2.5297809E2,-2.6038969E1,6.6820274E1,5.642879E0,8.817911E1,1.2095289E2,-1.25009026E2,-2.193262E1,1.7320647E2,3.224357E2],"split_indices":[1,1,1,4,1,4,0,10,7,0,0,6,4,4,7,0,0,0,0,0,0,0,0,0,0,0,0,0,0,0,0],"split_type":[0,0,0,0,0,0,0,0,0,0,0,0,0,0,0,0,0,0,0,0,0,0,0,0,0,0,0,0,0,0,0],"sum_hessian":[8.79E2,4.77E2,4.02E2,2.3E2,2.47E2,2.44E2,1.58E2,1.19E2,1.11E2,1.58E2,8.9E1,1.2E2,1.24E2,4E0,1.54E2,1.1E2,9E0,3.9E1,7.2E1,3.9E1,1.19E2,1E0,8.8E1,6.4E1,5.6E1,7.2E1,5.2E1,3E0,1E0,1.41E2,1.3E1],"tree_param":{"num_deleted":"0","num_feature":"12","num_nodes":"31","size_leaf_vector":"1"}},{"base_weights":[9.573697E1,-2.5948645E3,2.8903174E3,-3.8357063E3,-1.7430378E3,1.4143861E3,4.454024E3,-4.7339854E3,-3.3295654E3,-2.0911929E3,-9.0706506E2,-1.1078676E3,1.8279662E3,9.901852E3,4.1676655E3,-1.6576418E2,-9.2537056E1,7.329324E1,-1.1758248E2,-6.7505875E1,-1.358621E2,-4.1245262E1,8.527769E1,-2.3668446E1,-4.4353775E2,4.3195915E1,1.26037285E2,9.046913E1,7.1046204E2,1.23679E2,1.9157448E2],"categories":[],"categories_nodes":[],"categories_segments":[],"categories_sizes":[],"default_left":[0,0,1,0,0,0,0,0,0,0,0,0,0,0,0,0,0,0,0,0,0,0,0,0,0,0,0,0,0,0,0],"id":6,"left_children":[1,3,5,7,9,11,13,15,17,19,21,23,25,27,29,-1,-1,-1,-1,-1,-1,-1,-1,-1,-1,-1,-1,-1,-1,-1,-1],"loss_changes":[6.3464576E9,4.5436544E8,9.5537894E8,7.920717E7,7.417536E7,2.2226157E8,3.126528E8,1.2606336E7,6.1310336E7,4.1022336E7,7.541128E7,1.480521E8,1.9204109E8,7.8632416E8,1.5153254E8,0E0,0E0,0E0,0E0,0E0,0E0,0E0,0E0,0E0,0E0,0E0,0E0,0E0,0E0,0E0,0E0],"parents":[2147483647,0,0,1,1,2,2,3,3,4,4,5,5,6,6,7,7,8,8,9,9,10,10,11,11,12,12,13,13,14,14],"right_children":[2,4,6,8,10,12,14,16,18,20,22,24,26,28,30,-1,-1,-1,-1,-1,-1,-1,-1,-1,-1,-1,-1,-1,-1,-1,-1],"split_conditions":[1.2338E4,9.205E3,1.6250667E4,7.524E3,1.1226E4,1.2338E4,1.5547E4,8.683E3,6.361E3,1.2E1,1.42E2,1.2302E4,1.5988E4,1.69E2,1.9041E4,-1.6576418E2,-9.2537056E1,7.329324E1,-1.1758248E2,-6.7505875E1,-1.358621E2,-4.1245262E1,8.527769E1,-2.3668446E1,-4.4353775E2,4.3195915E1,1.26037285E2,9.046913E1,7.1046204E2,1.23679E2,1.9157448E2],"split_indices":[1,1,4,1,1,3,3,0,2,10,7,3,1,7,1,0,0,0,0,0,0,0,0,0,0,0,0,0,0,0,0],"split_type":[0,0,0,0,0,0,0,0,0,0,0,0,0,0,0,0,0,0,0,0,0,0,0,0,0,0,0,0,0,0,0],"sum_hessian":[8.44E2,4.3E2,4.14E2,1.75E2,2.55E2,2.13E2,2.01E2,6.3E1,1.12E2,1.8E2,7.5E1,3E1,1.83E2,1E1,1.91E2,6E1,3E0,2E0,1.1E2,1.69E2,1.1E1,6.9E1,6E0,2.9E1,1E0,1.4E2,4.3E1,6E0,4E0,1.37E2,5.4E1],"tree_param":{"num_deleted":"0","num_feature":"12","num_nodes":"31","size_leaf_vector":"1"}},{"base_weights":[-6.575267E1,-2.45377E3,2.7844346E3,-3.7581238E3,-1.5251729E3,1.6817098E3,4.6048545E3,-4.7395713E3,-3.2404446E3,-2.484553E3,-1.3420143E3,-5.89651E2,2.0255743E3,3.7989966E3,8.329397E3,-1.6735123E2,-1.1116283E2,-7.622112E1,-1.1628908E2,-6.497799E1,-9.859215E1,-5.055861E1,5.896138E0,1.0147477E2,-5.921703E1,6.1102047E1,1.821635E2,1.3499248E2,-4.4731177E2,7.0844763E2,1.8885959E2],"categories":[],"categories_nodes":[],"categories_segments":[],"categories_sizes":[],"default_left":[0,0,1,0,0,0,0,0,1,0,0,0,0,0,0,0,0,0,0,0,0,0,0,0,0,0,0,0,0,0,0],"id":7,"left_children":[1,3,5,7,9,11,13,15,17,19,21,23,25,27,29,-1,-1,-1,-1,-1,-1,-1,-1,-1,-1,-1,-1,-1,-1,-1,-1],"loss_changes":[6.0170685E9,5.82485E8,8.088502E8,1.0126771E8,4.929869E7,1.9608813E8,4.5555763E8,1.4243072E7,1.9979776E7,1.0243936E7,4.7381504E7,1.3342757E8,1.7428026E8,2.9214272E8,9.3760845E8,0E0,0E0,0E0,0E0,0E0,0E0,0E0,0E0,0E0,0E0,0E0,0E0,0E0,0E0,0E0,0E0],"parents":[2147483647,0,0,1,1,2,2,3,3,4,4,5,5,6,6,7,7,8,8,9,9,10,10,11,11,12,12,13,13,14,14],"right_children":[2,4,6,8,10,12,14,16,18,20,22,24,26,28,30,-1,-1,-1,-1,-1,-1,-1,-1,-1,-1,-1,-1,-1,-1,-1,-1],"split_conditions":[1.2797E4,9.304E3,1.6948479E4,7.463E3,9.83E3,1.2604E4,1.7E2,7.7608335E3,7.54E3,1.6E1,1.62E2,1.3055E4,1.8126E4,1.69E2,3.801568E2,-1.6735123E2,-1.1116283E2,-7.622112E1,-1.1628908E2,-6.497799E1,-9.859215E1,-5.055861E1,5.896138E0,1.0147477E2,-5.921703E1,6.1102047E1,1.821635E2,1.3499248E2,-4.4731177E2,7.0844763E2,1.8885959E2],"split_indices":[1,1,4,1,1,3,7,4,3,7,7,1,1,7,5,0,0,0,0,0,0,0,0,0,0,0,0,0,0,0,0],"split_type":[0,0,0,0,0,0,0,0,0,0,0,0,0,0,0,0,0,0,0,0,0,0,0,0,0,0,0,0,0,0,0],"sum_hessian":[8.84E2,4.81E2,4.03E2,2E2,2.81E2,2.51E2,1.52E2,6.9E1,1.31E2,4.5E1,2.36E2,3.3E1,2.18E2,1.25E2,2.7E1,6.3E1,6E0,1.7E1,1.14E2,1.8E1,2.7E1,2.17E2,1.9E1,8E0,2.5E1,2.03E2,1.5E1,1.24E2,1E0,5E0,2.2E1],"tree_param":{"num_deleted":"0","num_feature":"12","num_nodes":"31","size_leaf_vector":"1"}},{"base_weights":[-1.8121313E2,-2.4775679E3,2.6025803E3,-3.706207E3,-1.6334641E3,7.193757E2,3.6067974E3,-4.169541E3,-3.1287793E3,-2.144186E3,-9.957981E2,-2.6309175E3,1.1042625E3,2.466988E3,4.43034E3,-1.4053488E2,-3.9122498E2,-1.15364716E2,-8.7448784E1,-6.8094376E1,-1.2831544E2,3.9970432E1,-4.425553E1,-1.6646341E2,-6.910678E1,7.166739E1,-4.7197747E0,4.9786564E1,1.0295516E2,6.4440533E2,1.4505692E2],"categories":[],"categories_nodes":[],"categories_segments":[],"categories_sizes":[],"default_left":[0,0,0,0,0,0,0,0,0,0,0,0,0,0,0,0,0,0,0,0,0,0,0,0,0,0,0,0,0,0,0],"id":8,"left_children":[1,3,5,7,9,11,13,15,17,19,21,23,25,27,29,-1,-1,-1,-1,-1,-1,-1,-1,-1,-1,-1,-1,-1,-1,-1,-1],"loss_changes":[5.5298647E9,4.9146214E8,7.3941376E8,5.1335936E7,9.14665E7,1.7545997E8,2.3912678E8,5.372352E7,1.15328E7,3.925952E7,7.974383E7,1.8959168E7,1.4942805E8,5.8090944E7,4.2262528E8,0E0,0E0,0E0,0E0,0E0,0E0,0E0,0E0,0E0,0E0,0E0,0E0,0E0,0E0,0E0,0E0],"parents":[2147483647,0,0,1,1,2,2,3,3,4,4,5,5,6,6,7,7,8,8,9,9,10,10,11,11,12,12,13,13,14,14],"right_children":[2,4,6,8,10,12,14,16,18,20,22,24,26,28,30,-1,-1,-1,-1,-1,-1,-1,-1,-1,-1,-1,-1,-1,-1,-1,-1],"split_conditions":[1.2648E4,9.304E3,1.4999E4,8.5123545E3,1.0945E4,2E0,1.6975E4,9.271E3,8.813E3,1.2E1,9.756E3,8.468E3,1.13E2,1.5762417E4,1.5083E4,-1.4053488E2,-3.9122498E2,-1.15364716E2,-8.7448784E1,-6.8094376E1,-1.2831544E2,3.9970432E1,-4.425553E1,-1.6646341E2,-6.910678E1,7.166739E1,-4.7197747E0,4.9786564E1,1.0295516E2,6.4440533E2,1.4505692E2],"split_indices":[1,1,3,4,1,10,1,1,1,10,3,2,6,4,0,0,0,0,0,0,0,0,0,0,0,0,0,0,0,0,0],"split_type":[0,0,0,0,0,0,0,0,0,0,0,0,0,0,0,0,0,0,0,0,0,0,0,0,0,0,0,0,0,0,0],"sum_hessian":[8.65E2,4.74E2,3.91E2,1.93E2,2.81E2,1.36E2,2.55E2,1.07E2,8.6E1,1.56E2,1.25E2,1.4E1,1.22E2,1.07E2,1.48E2,1.06E2,1E0,6.1E1,2.5E1,1.42E2,1.4E1,1.5E1,1.1E2,3E0,1.1E1,6.8E1,5.4E1,3.7E1,7E1,2E0,1.46E2],"tree_param":{"num_deleted":"0","num_feature":"12","num_nodes":"31","size_leaf_vector":"1"}},{"base_weights":[-1.1032557E2,-2.3162239E3,2.6294165E3,-3.5360154E3,-1.3861936E3,1.6780494E3,4.250988E3,-4.0174443E3,-2.7198179E3,-1.6916144E3,-3.423977E2,8.0445056E2,2.51523E3,5.3282134E3,1.2798649E3,-3.9236282E1,-1.4093973E2,-8.587976E1,-1.0790795E2,-5.0737038E1,-1.25044556E2,2.580703E2,-1.6409533E1,-1.12281685E2,3.3903927E1,7.6371796E1,1.3051422E2,3.8012686E2,1.6349194E2,-2.9930492E1,1.217403E2],"categories":[],"categories_nodes":[],"categories_segments":[],"categories_sizes":[],"default_left":[0,0,0,0,0,0,0,0,0,0,0,0,0,0,0,0,0,0,0,0,0,0,0,0,0,0,0,0,0,0,0],"id":9,"left_children":[1,3,5,7,9,11,13,15,17,19,21,23,25,27,29,-1,-1,-1,-1,-1,-1,-1,-1,-1,-1,-1,-1,-1,-1,-1,-1],"loss_changes":[5.0950175E9,5.2969088E8,5.799222E8,7.91255E7,8.447117E7,1.7329664E8,4.4478464E8,3.389453E7,6.708608E6,8.478982E7,6.4397576E7,8.733545E7,4.477248E7,3.276836E8,1.8106237E8,0E0,0E0,0E0,0E0,0E0,0E0,0E0,0E0,0E0,0E0,0E0,0E0,0E0,0E0,0E0,0E0],"parents":[2147483647,0,0,1,1,2,2,3,3,4,4,5,5,6,6,7,7,8,8,9,9,10,10,11,11,12,12,13,13,14,14],"right_children":[2,4,6,8,10,12,14,16,18,20,22,24,26,28,30,-1,-1,-1,-1,-1,-1,-1,-1,-1,-1,-1,-1,-1,-1,-1,-1],"split_conditions":[1.2884E4,9.64E3,1.7398E4,8.579E3,1.2133E4,1.5367E4,1.118487E3,6.361E3,3E1,8.623193E2,8.062E3,1.0096E4,1.8487E4,1.5367E4,1.7474E4,-3.9236282E1,-1.4093973E2,-8.587976E1,-1.0790795E2,-5.0737038E1,-1.25044556E2,2.580703E2,-1.6409533E1,-1.12281685E2,3.3903927E1,7.6371796E1,1.3051422E2,3.8012686E2,1.6349194E2,-2.9930492E1,1.217403E2],"split_indices":[1,1,1,2,2,2,5,2,7,5,3,3,0,3,3,0,0,0,0,0,0,0,0,0,0,0,0,0,0,0,0],"split_type":[0,0,0,0,0,0,0,0,0,0,0,0,0,0,0,0,0,0,0,0,0,0,0,0,0,0,0,0,0,0,0],"sum_hessian":[8.43E2,4.67E2,3.76E2,2.02E2,2.65E2,2.37E2,1.39E2,1.27E2,7.5E1,2.05E2,6E1,1.16E2,1.21E2,1.02E2,3.7E1,4E0,1.23E2,5E1,2.5E1,1.85E2,2E1,1E0,5.9E1,5E0,1.11E2,9.9E1,2.2E1,9E0,9.3E1,1.9E1,1.8E1],"tree_param":{"num_deleted":"0","num_feature":"12","num_nodes":"31","size_leaf_vector":"1"}},{"base_weights":[1.1449852E1,-1.9189446E3,3.0755898E3,-3.1365078E3,-9.237299E2,2.2007295E3,5.133626E3,-3.9227974E3,-2.581591E3,-7.2703546E2,-3.4397546E3,-1.3780223E2,2.5072278E3,6.5845454E3,2.093232E3,-1.4878111E2,-1.0753419E2,-3.297103E1,-9.189918E1,-3.6254574E1,8.555502E1,-2.1102089E2,-3.3054367E1,-6.802644E1,1.7478247E1,6.607204E1,1.0918516E2,1.729955E2,4.668322E2,1.03196915E2,-6.428061E1],"categories":[],"categories_nodes":[],"categories_segments":[],"categories_sizes":[],"default_left":[1,0,0,0,0,0,0,0,0,0,0,0,0,0,0,0,0,0,0,0,0,0,0,0,0,0,0,0,0,0,0],"id":10,"left_children":[1,3,5,7,9,11,13,15,17,19,21,23,25,27,29,-1,-1,-1,-1,-1,-1,-1,-1,-1,-1,-1,-1,-1,-1,-1,-1],"loss_changes":[5.0812493E9,6.385394E8,5.9753754E8,1.0317978E8,1.4346421E8,1.6703283E8,4.364987E8,3.1792896E7,2.2170624E7,2.864396E8,1.4114726E8,3.2332864E7,8.080474E7,7.236516E8,1.1659634E8,0E0,0E0,0E0,0E0,0E0,0E0,0E0,0E0,0E0,0E0,0E0,0E0,0E0,0E0,0E0,0E0],"parents":[2147483647,0,0,1,1,2,2,3,3,4,4,5,5,6,6,7,7,8,8,9,9,10,10,11,11,12,12,13,13,14,14],"right_children":[2,4,6,8,10,12,14,16,18,20,22,24,26,28,30,-1,-1,-1,-1,-1,-1,-1,-1,-1,-1,-1,-1,-1,-1,-1,-1],"split_conditions":[1.372E4,9.883E3,1.8191E4,8.079E3,1.2E1,1.3832E4,1.0625507E3,7.8236665E3,7.591E3,1.1E1,3.2367538E2,1.1945E4,1.6773438E4,1.1E1,1.54E2,-1.4878111E2,-1.0753419E2,-3.297103E1,-9.189918E1,-3.6254574E1,8.555502E1,-2.1102089E2,-3.3054367E1,-6.802644E1,1.7478247E1,6.607204E1,1.0918516E2,1.729955E2,4.668322E2,1.03196915E2,-6.428061E1],"split_indices":[3,1,1,1,10,0,5,4,0,10,5,1,4,10,7,0,0,0,0,0,0,0,0,0,0,0,0,0,0,0,0],"split_type":[0,0,0,0,0,0,0,0,0,0,0,0,0,0,0,0,0,0,0,0,0,0,0,0,0,0,0,0,0,0,0],"sum_hessian":[8.59E2,5.27E2,3.32E2,2.37E2,2.9E2,2.33E2,9.9E1,9.8E1,1.39E2,2.69E2,2.1E1,2.7E1,2.06E2,6.7E1,3.2E1,6.4E1,3.4E1,8E0,1.31E2,2.44E2,2.5E1,1E1,1.1E1,7E0,2E1,1.11E2,9.5E1,5.5E1,1.2E1,2.6E1,6E0],"tree_param":{"num_deleted":"0","num_feature":"12","num_nodes":"31","size_leaf_vector":"1"}},{"base_weights":[2.4876068E1,-1.8870258E3,2.8479082E3,-3.2830066E3,-1.0821156E3,1.986583E3,4.5913823E3,-3.7575923E3,-2.4465227E3,-1.3911174E3,-2.6569601E1,1.2568427E3,3.1228586E3,3.7204324E3,9.211286E3,-1.355181E2,-9.143184E1,2.1372432E2,-9.2576416E1,-5.693598E1,9.2239237E-1,-1.1755797E1,1.07220436E2,5.347309E1,-7.44251E1,9.501852E1,1.9010709E2,8.072223E1,1.569833E2,7.6345917E2,2.3094325E2],"categories":[],"categories_nodes":[],"categories_segments":[],"categories_sizes":[],"default_left":[0,0,1,1,1,1,0,0,0,0,0,1,0,0,0,0,0,0,0,0,0,0,0,0,0,0,0,0,0,0,0],"id":11,"left_children":[1,3,5,7,9,11,13,15,17,19,21,23,25,27,29,-1,-1,-1,-1,-1,-1,-1,-1,-1,-1,-1,-1,-1,-1,-1,-1],"loss_changes":[4.852468E9,6.0220736E8,5.449331E8,7.760013E7,1.1089978E8,2.014142E8,4.8214426E8,2.6335744E7,1.5667613E8,1.0050995E8,7.684999E7,1.536737E8,8.054195E7,1.1817254E8,6.1141645E8,0E0,0E0,0E0,0E0,0E0,0E0,0E0,0E0,0E0,0E0,0E0,0E0,0E0,0E0,0E0,0E0],"parents":[2147483647,0,0,1,1,2,2,3,3,4,4,5,5,6,6,7,7,8,8,9,9,10,10,11,11,12,12,13,13,14,14],"right_children":[2,4,6,8,10,12,14,16,18,20,22,24,26,28,30,-1,-1,-1,-1,-1,-1,-1,-1,-1,-1,-1,-1,-1,-1,-1,-1],"split_conditions":[1.3497E4,9.278E3,1.7825E4,8.6511875E3,1.2133E4,1.6495E4,1.86E2,8.548E3,7.601E3,1.1E1,1.61E2,2.2714055E3,1.1E1,1.7867E4,2.2984833E2,-1.355181E2,-9.143184E1,2.1372432E2,-9.2576416E1,-5.693598E1,9.2239237E-1,-1.1755797E1,1.07220436E2,5.347309E1,-7.44251E1,9.501852E1,1.9010709E2,8.072223E1,1.569833E2,7.6345917E2,2.3094325E2],"split_indices":[0,0,2,4,2,3,7,2,2,10,7,5,10,0,5,0,0,0,0,0,0,0,0,0,0,0,0,0,0,0,0],"split_type":[0,0,0,0,0,0,0,0,0,0,0,0,0,0,0,0,0,0,0,0,0,0,0,0,0,0,0,0,0,0,0],"sum_hessian":[8.99E2,5.36E2,3.63E2,1.96E2,3.4E2,2.43E2,1.2E2,1.25E2,7.1E1,2.63E2,7.7E1,1.48E2,9.5E1,1.01E2,1.9E1,1.06E2,1.9E1,2E0,6.9E1,2.21E2,4.2E1,7E1,7E0,1.36E2,1.2E1,8.3E1,1.2E1,3.9E1,6.2E1,3E0,1.6E1],"tree_param":{"num_deleted":"0","num_feature":"12","num_nodes":"31","size_leaf_vector":"1"}},{"base_weights":[-9.057772E1,-2.1022024E3,2.3361995E3,-3.2043323E3,-1.2575681E3,6.145157E2,3.0817444E3,-4.002257E3,-2.8131628E3,-1.4268342E3,6.1855316E2,-3.9733647E3,8.9209784E2,2.4008135E3,4.7871206E3,-1.52433E2,-1.257366E2,1.3014075E2,-9.807016E1,-4.603531E1,-2.2874152E2,1.8020638E2,-3.5067055E1,-1.6027505E2,-1.173966E2,1.5427318E2,2.2613308E1,5.3325775E2,8.002445E1,6.2749554E2,1.4613757E2],"categories":[],"categories_nodes":[],"categories_segments":[],"categories_sizes":[],"default_left":[0,0,1,0,0,0,0,0,0,0,0,0,0,0,0,0,0,0,0,0,0,0,0,0,0,0,0,0,0,0,0],"id":12,"left_children":[1,3,5,7,9,11,13,15,17,19,21,23,25,27,29,-1,-1,-1,-1,-1,-1,-1,-1,-1,-1,-1,-1,-1,-1,-1,-1],"loss_changes":[4.384042E9,4.56992E8,5.2240102E8,6.622464E7,8.831123E7,1.5674304E8,3.2954803E8,1.0026752E7,4.4800256E7,1.1236387E8,1.753585E8,2.33196E6,9.725906E7,1.775936E8,5.7294566E8,0E0,0E0,0E0,0E0,0E0,0E0,0E0,0E0,0E0,0E0,0E0,0E0,0E0,0E0,0E0,0E0],"parents":[2147483647,0,0,1,1,2,2,3,3,4,4,5,5,6,6,7,7,8,8,9,9,10,10,11,11,12,12,13,13,14,14],"right_children":[2,4,6,8,10,12,14,16,18,20,22,24,26,28,30,-1,-1,-1,-1,-1,-1,-1,-1,-1,-1,-1,-1,-1,-1,-1,-1],"split_conditions":[1.2844E4,9.397E3,1.4806E4,7.463E3,1.71E2,9.205E3,1.8458E4,7.045E3,6.361E3,1.62E2,2.0741534E2,9.9253125E3,1.3008E4,1.2382E4,1.5367E4,-1.52433E2,-1.257366E2,1.3014075E2,-9.807016E1,-4.603531E1,-2.2874152E2,1.8020638E2,-3.5067055E1,-1.6027505E2,-1.173966E2,1.5427318E2,2.2613308E1,5.3325775E2,8.002445E1,6.2749554E2,1.4613757E2],"split_indices":[1,1,3,1,7,3,1,0,2,7,5,4,1,2,3,0,0,0,0,0,0,0,0,0,0,0,0,0,0,0,0],"split_type":[0,0,0,0,0,0,0,0,0,0,0,0,0,0,0,0,0,0,0,0,0,0,0,0,0,0,0,0,0,0,0],"sum_hessian":[8.98E2,4.91E2,4.07E2,2.13E2,2.78E2,1.23E2,2.84E2,7E1,1.43E2,2.55E2,2.3E1,7E0,1.16E2,2.03E2,8.1E1,3E1,4E1,1E0,1.42E2,2.51E2,4E0,6E0,1.7E1,3E0,4E0,7E0,1.09E2,1E0,2.02E2,3E0,7.8E1],"tree_param":{"num_deleted":"0","num_feature":"12","num_nodes":"31","size_leaf_vector":"1"}},{"base_weights":[1.036436E1,-1.7785968E3,2.5376653E3,-3.0119944E3,-1.0703706E3,1.7689877E3,3.886706E3,-3.75391E3,-2.48721E3,-2.0799497E3,-7.970245E2,-2.3195078E3,1.9357137E3,4.4645923E3,1.7589773E3,-1.3043385E2,-8.548588E1,-7.626069E1,-1.9858444E2,-5.206624E1,-8.697526E1,-2.24714E1,-8.754141E1,-1.01370285E2,-3.539486E1,5.6582268E1,1.2858751E2,1.3318246E2,3.5999988E2,8.7603806E1,-7.971684E0],"categories":[],"categories_nodes":[],"categories_segments":[],"categories_sizes":[],"default_left":[0,0,1,1,1,0,0,0,0,0,0,0,0,0,0,0,0,0,0,0,0,0,0,0,0,0,0,0,0,0,0],"id":13,"left_children":[1,3,5,7,9,11,13,15,17,19,21,23,25,27,29,-1,-1,-1,-1,-1,-1,-1,-1,-1,-1,-1,-1,-1,-1,-1,-1],"loss_changes":[3.9382054E9,4.4543667E8,3.7420723E8,7.220595E7,8.937574E7,1.5689587E8,1.6091533E8,4.660992E6,9.445011E7,1.760464E7,6.338589E7,7.321992E6,1.1433517E8,3.5980544E8,4.4443256E7,0E0,0E0,0E0,0E0,0E0,0E0,0E0,0E0,0E0,0E0,0E0,0E0,0E0,0E0,0E0,0E0],"parents":[2147483647,0,0,1,1,2,2,3,3,4,4,5,5,6,6,7,7,8,8,9,9,10,10,11,11,12,12,13,13,14,14],"right_children":[2,4,6,8,10,12,14,16,18,20,22,24,26,28,30,-1,-1,-1,-1,-1,-1,-1,-1,-1,-1,-1,-1,-1,-1,-1,-1],"split_conditions":[1.3497E4,9.25E3,1.7423854E4,7.8236665E3,9.657542E3,1.0805E4,7.964923E2,8.683E3,1.2E1,1E1,1.2E1,1.043E4,1.71E2,1.77E2,1.45E2,-1.3043385E2,-8.548588E1,-7.626069E1,-1.9858444E2,-5.206624E1,-8.697526E1,-2.24714E1,-8.754141E1,-1.01370285E2,-3.539486E1,5.6582268E1,1.2858751E2,1.3318246E2,3.5999988E2,8.7603806E1,-7.971684E0],"split_indices":[0,0,4,4,4,3,5,0,10,7,10,3,7,7,7,0,0,0,0,0,0,0,0,0,0,0,0,0,0,0,0],"split_type":[0,0,0,0,0,0,0,0,0,0,0,0,0,0,0,0,0,0,0,0,0,0,0,0,0,0,0,0,0,0,0],"sum_hessian":[8.71E2,5.1E2,3.61E2,1.86E2,3.24E2,2.3E2,1.31E2,7.7E1,1.09E2,6.9E1,2.55E2,9E0,2.21E2,1.03E2,2.8E1,7.4E1,3E0,1.01E2,8E0,3.1E1,3.8E1,2.36E2,1.9E1,6E0,3E0,1.91E2,3E1,9.4E1,9E0,2E1,8E0],"tree_param":{"num_deleted":"0","num_feature":"12","num_nodes":"31","size_leaf_vector":"1"}},{"base_weights":[7.973524E1,-1.652582E3,2.5867363E3,-2.9906853E3,-9.032487E2,1.6542604E3,4.0012595E3,-3.5425823E3,-2.2676494E3,-1.4932308E3,-1.9669382E2,-7.529692E1,2.0816467E3,4.5623022E3,-1.1672333E3,-1.3435817E2,-1.0012147E2,2.4365412E1,-8.7414925E1,-5.8771126E1,3.9626064E1,-2.0130515E0,-1.044141E2,-8.655524E1,1.665306E1,6.1015114E1,9.851853E1,1.3917157E2,3.6097864E2,3.227381E1,-3.0340814E2],"categories":[],"categories_nodes":[],"categories_segments":[],"categories_sizes":[],"default_left":[0,0,0,0,0,0,0,0,0,0,0,1,0,0,0,0,0,0,0,0,0,0,0,0,0,0,0,0,0,0,0],"id":14,"left_children":[1,3,5,7,9,11,13,15,17,19,21,23,25,27,29,-1,-1,-1,-1,-1,-1,-1,-1,-1,-1,-1,-1,-1,-1,-1,-1],"loss_changes":[3.826307E9,5.2235328E8,4.7471334E8,7.443866E7,1.3922874E8,1.6042816E8,4.1485363E8,2.4550784E7,6.806576E7,1.0654848E8,5.974326E7,5.9143244E7,4.1497664E7,3.8638003E8,2.2732898E8,0E0,0E0,0E0,0E0,0E0,0E0,0E0,0E0,0E0,0E0,0E0,0E0,0E0,0E0,0E0,0E0],"parents":[2147483647,0,0,1,1,2,2,3,3,4,4,5,5,6,6,7,7,8,8,9,9,10,10,11,11,12,12,13,13,14,14],"right_children":[2,4,6,8,10,12,14,16,18,20,22,24,26,28,30,-1,-1,-1,-1,-1,-1,-1,-1,-1,-1,-1,-1,-1,-1,-1,-1],"split_conditions":[1.3832E4,9.304E3,1.7398E4,8.156E3,1.1226E4,1.4222E4,1.2E1,7.74E3,7.738E3,1.66E2,1.657E4,1.25287295E4,1.7452E4,1.1E1,1.69E2,-1.3435817E2,-1.0012147E2,2.4365412E1,-8.7414925E1,-5.8771126E1,3.9626064E1,-2.0130515E0,-1.044141E2,-8.655524E1,1.665306E1,6.1015114E1,9.851853E1,1.3917157E2,3.6097864E2,3.227381E1,-3.0340814E2],"split_indices":[0,1,1,1,1,3,10,2,3,7,1,4,2,10,7,0,0,0,0,0,0,0,0,0,0,0,0,0,0,0,0],"split_type":[0,0,0,0,0,0,0,0,0,0,0,0,0,0,0,0,0,0,0,0,0,0,0,0,0,0,0,0,0,0,0],"sum_hessian":[8.81E2,5.21E2,3.6E2,1.87E2,3.34E2,2.17E2,1.43E2,1.06E2,8.1E1,1.82E2,1.52E2,4.3E1,1.74E2,1.29E2,1.4E1,6.6E1,4E1,7E0,7.4E1,1.68E2,1.4E1,1.45E2,7E0,8E0,3.5E1,1.26E2,4.8E1,1.19E2,1E1,1.1E1,3E0],"tree_param":{"num_deleted":"0","num_feature":"12","num_nodes":"31","size_leaf_vector":"1"}},{"base_weights":[-1.898092E1,-1.9486954E3,2.146623E3,-2.976773E3,-1.2352966E3,1.2616681E3,3.377978E3,-3.296992E3,-2.3404443E3,2.4206493E2,-1.2666074E3,3.489162E2,1.7779531E3,3.6946323E3,-1.2258711E3,-1.1089138E2,-2.4263132E2,-7.1426796E1,-8.9884285E1,-3.7545708E1,-8.420189E1,1.7093039E1,-1.2902061E2,-1.3138435E2,6.485219E1,1.0843087E2,3.0262247E2,-2.3573004E2,6.904051E1],"categories":[],"categories_nodes":[],"categories_segments":[],"categories_sizes":[],"default_left":[0,0,1,0,0,0,0,0,0,0,0,0,0,0,0,0,0,0,0,0,0,0,0,0,0,0,0,0,0],"id":15,"left_children":[1,3,5,7,9,11,13,15,17,-1,19,21,23,25,27,-1,-1,-1,-1,-1,-1,-1,-1,-1,-1,-1,-1,-1,-1],"loss_changes":[3.6275553E9,3.3656973E8,4.4560448E8,3.812864E7,7.058061E7,1.1214742E8,2.4942694E8,2.91168E7,4.425536E6,0E0,5.502083E7,5.295735E7,9.697101E7,4.363387E8,2.0203989E8,0E0,0E0,0E0,0E0,0E0,0E0,0E0,0E0,0E0,0E0,0E0,0E0,0E0,0E0],"parents":[2147483647,0,0,1,1,2,2,3,3,4,4,5,5,6,6,7,7,8,8,10,10,11,11,12,12,13,13,14,14],"right_children":[2,4,6,8,10,12,14,16,18,-1,20,22,24,26,28,-1,-1,-1,-1,-1,-1,-1,-1,-1,-1,-1,-1,-1,-1],"split_conditions":[1.2648E4,9.333E3,1.6948479E4,8.579E3,7.138E3,1.4519E4,1.2E1,9.271E3,1.9E1,2.4206493E2,8.4577875E2,1.2E1,1.043E4,1.1E1,1.7423854E4,-1.1089138E2,-2.4263132E2,-7.1426796E1,-8.9884285E1,-3.7545708E1,-8.420189E1,1.7093039E1,-1.2902061E2,-1.3138435E2,6.485219E1,1.0843087E2,3.0262247E2,-2.3573004E2,6.904051E1],"split_indices":[1,1,4,2,2,1,10,1,7,0,5,10,2,10,4,0,0,0,0,0,0,0,0,0,0,0,0,0,0],"split_type":[0,0,0,0,0,0,0,0,0,0,0,0,0,0,0,0,0,0,0,0,0,0,0,0,0,0,0,0,0],"sum_hessian":[8.68E2,4.59E2,4.09E2,1.88E2,2.71E2,2.38E2,1.71E2,1.25E2,6.3E1,1E0,2.7E2,8.6E1,1.52E2,1.6E2,1.1E1,1.23E2,2E0,3.3E1,3E1,2.36E2,3.4E1,8.3E1,3E0,3E0,1.49E2,1.45E2,1.5E1,4E0,7E0],"tree_param":{"num_deleted":"0","num_feature":"12","num_nodes":"29","size_leaf_vector":"1"}},{"base_weights":[1.8512047E1,-1.618775E3,2.2848296E3,-2.6833867E3,-8.826433E2,1.6044286E3,3.5927783E3,-2.969017E3,-1.890753E3,-1.0556732E3,1.1854807E3,1.899798E3,-8.345827E2,6.102069E2,3.479598E3,-9.8141014E1,-1.8010106E2,-7.404004E1,-3.356775E1,-5.108954E1,-1.6610674E1,6.0359985E1,-4.0414316E2,5.6052753E1,1.6249667E2,4.7361637E1,-1.390054E2,2.7442776E2,1.1299983E2],"categories":[],"categories_nodes":[],"categories_segments":[],"categories_sizes":[],"default_left":[0,1,1,0,0,1,0,1,0,0,0,1,0,0,0,0,0,0,0,0,0,0,0,0,0,0,0,0,0],"id":16,"left_children":[1,3,5,7,9,11,13,15,17,19,21,23,25,-1,27,-1,-1,-1,-1,-1,-1,-1,-1,-1,-1,-1,-1,-1,-1],"loss_changes":[3.361981E9,4.121806E8,3.38054E8,4.854605E7,1.1132611E8,1.801559E8,2.0760922E8,3.813504E7,1.3915232E7,7.119939E7,1.7962202E8,1.6761491E8,1.9292022E8,0E0,1.0671206E8,0E0,0E0,0E0,0E0,0E0,0E0,0E0,0E0,0E0,0E0,0E0,0E0,0E0,0E0],"parents":[2147483647,0,0,1,1,2,2,3,3,4,4,5,5,6,6,7,7,8,8,9,9,10,10,11,11,12,12,14,14],"right_children":[2,4,6,8,10,12,14,16,18,20,22,24,26,-1,28,-1,-1,-1,-1,-1,-1,-1,-1,-1,-1,-1,-1,-1,-1],"split_conditions":[1.3497E4,9.368958E3,1.7423854E4,9.25E3,1.55E2,1.4989468E3,1.5083E4,1.0406088E3,1.0948E4,2.9569846E2,1.4989468E3,1.8444E4,2E0,6.102069E2,8.1154816E1,-9.8141014E1,-1.8010106E2,-7.404004E1,-3.356775E1,-5.108954E1,-1.6610674E1,6.0359985E1,-4.0414316E2,5.6052753E1,1.6249667E2,4.7361637E1,-1.390054E2,2.7442776E2,1.1299983E2],"split_indices":[0,4,4,0,7,5,0,5,3,5,5,2,11,0,5,0,0,0,0,0,0,0,0,0,0,0,0,0,0],"split_type":[0,0,0,0,0,0,0,0,0,0,0,0,0,0,0,0,0,0,0,0,0,0,0,0,0,0,0,0,0],"sum_hessian":[9.06E2,5.26E2,3.8E2,2.15E2,3.11E2,2.5E2,1.3E2,1.58E2,5.7E1,2.87E2,2.4E1,2.23E2,2.7E1,1E0,1.29E2,1.51E2,7E0,4.4E1,1.3E1,1.63E2,1.24E2,2.3E1,1E0,2.04E2,1.9E1,1.6E1,1.1E1,5E0,1.24E2],"tree_param":{"num_deleted":"0","num_feature":"12","num_nodes":"29","size_leaf_vector":"1"}},{"base_weights":[-4.8605873E1,-1.6792947E3,2.2585059E3,-3.0751484E3,-1.1931473E3,3.5868515E2,2.793589E3,-1.2686082E3,-3.1454673E3,-1.6114672E3,-5.736598E2,-2.207423E3,9.036036E2,3.041369E3,2.260851E2,9.612817E1,-1.366253E2,-1.18323456E2,-9.3899155E1,-4.836005E1,-1.04397804E2,-2.424339E1,1.5104369E2,-9.909386E1,-4.42104E1,1.3542536E0,6.4404305E1,8.987119E1,2.7614664E2,4.4021446E1,-1.8183649E2],"categories":[],"categories_nodes":[],"categories_segments":[],"categories_sizes":[],"default_left":[0,0,0,0,1,0,0,0,1,0,0,0,1,0,1,0,0,0,0,0,0,0,0,0,0,0,0,0,0,0,0],"id":17,"left_children":[1,3,5,7,9,11,13,15,17,19,21,23,25,27,29,-1,-1,-1,-1,-1,-1,-1,-1,-1,-1,-1,-1,-1,-1,-1,-1],"loss_changes":[3.3071242E9,3.4939866E8,3.700224E8,1.6800256E7,9.897363E7,1.119384E8,1.8066586E8,5.5802896E7,1.5689728E7,6.559149E7,1.0237883E8,8.696704E6,5.5607292E7,5.45087E8,1.4650709E8,0E0,0E0,0E0,0E0,0E0,0E0,0E0,0E0,0E0,0E0,0E0,0E0,0E0,0E0,0E0,0E0],"parents":[2147483647,0,0,1,1,2,2,3,3,4,4,5,5,6,6,7,7,8,8,9,9,10,10,11,11,12,12,13,13,14,14],"right_children":[2,4,6,8,10,12,14,16,18,20,22,24,26,28,30,-1,-1,-1,-1,-1,-1,-1,-1,-1,-1,-1,-1,-1,-1,-1,-1],"split_conditions":[1.3497E4,8.468E3,1.4626E4,6.361E3,1.1142E4,1.1726E4,1.2E1,6.706E3,7.7608335E3,9.219517E2,1.9E2,1.043E4,3.801568E2,1.1E1,2.0968274E3,9.612817E1,-1.366253E2,-1.18323456E2,-9.3899155E1,-4.836005E1,-1.04397804E2,-2.424339E1,1.5104369E2,-9.909386E1,-4.42104E1,1.3542536E0,6.4404305E1,8.987119E1,2.7614664E2,4.4021446E1,-1.8183649E2],"split_indices":[0,2,3,2,2,2,10,3,4,5,7,3,5,10,5,0,0,0,0,0,0,0,0,0,0,0,0,0,0,0,0],"split_type":[0,0,0,0,0,0,0,0,0,0,0,0,0,0,0,0,0,0,0,0,0,0,0,0,0,0,0,0,0,0,0],"sum_hessian":[8.79E2,5.15E2,3.64E2,1.33E2,3.82E2,8E1,2.84E2,5E0,1.28E2,2.28E2,1.54E2,1.4E1,6.6E1,2.59E2,2.5E1,2E0,3E0,7.3E1,5.5E1,2E2,2.8E1,1.5E2,4E0,8E0,6E0,3.5E1,3.1E1,2.39E2,2E1,2.1E1,4E0],"tree_param":{"num_deleted":"0","num_feature":"12","num_nodes":"31","size_leaf_vector":"1"}},{"base_weights":[3.5378704E1,-1.6489507E3,1.9522966E3,-2.2440813E3,-6.3672546E2,1.1634833E3,3.1006064E3,-2.9654492E3,-1.8573308E3,1.0146852E3,-9.604307E2,-2.2234414E3,1.3351747E3,2.4029768E3,4.237035E3,-1.0593126E2,-7.388108E1,-5.152364E0,-6.749719E1,1.8155163E1,4.8995898E2,-4.75276E1,-1.4782359E1,-1.035357E2,-2.1342648E1,3.5489557E2,4.443512E1,3.3085068E2,7.754131E1,1.9218289E2,3.9627457E1],"categories":[],"categories_nodes":[],"categories_segments":[],"categories_sizes":[],"default_left":[0,0,1,0,0,0,0,0,0,0,1,0,0,0,0,0,0,0,0,0,0,0,0,0,0,0,0,0,0,0,0],"id":18,"left_children":[1,3,5,7,9,11,13,15,17,19,21,23,25,27,29,-1,-1,-1,-1,-1,-1,-1,-1,-1,-1,-1,-1,-1,-1,-1,-1],"loss_changes":[2.8995356E9,2.8792576E8,3.8036787E8,8.384947E7,9.465243E7,1.4487213E8,1.3534694E8,1.0409024E7,3.7227904E7,1.8672944E8,3.3339408E7,1.5276576E7,8.340925E7,1.0813683E8,2.7395264E8,0E0,0E0,0E0,0E0,0E0,0E0,0E0,0E0,0E0,0E0,0E0,0E0,0E0,0E0,0E0,0E0],"parents":[2147483647,0,0,1,1,2,2,3,3,4,4,5,5,6,6,7,7,8,8,9,9,10,10,11,11,12,12,13,13,14,14],"right_children":[2,4,6,8,10,12,14,16,18,20,22,24,26,28,30,-1,-1,-1,-1,-1,-1,-1,-1,-1,-1,-1,-1,-1,-1,-1,-1],"split_conditions":[1.2797E4,1.0422E4,1.6980312E4,8.156E3,9.93E3,1.0456E4,1.8516E4,8.786E3,7.54E3,9.833E3,1.14416875E4,6.5E1,1.0517E4,1.5083E4,1.3275355E3,-1.0593126E2,-7.388108E1,-5.152364E0,-6.749719E1,1.8155163E1,4.8995898E2,-4.75276E1,-1.4782359E1,-1.035357E2,-2.1342648E1,3.5489557E2,4.443512E1,3.3085068E2,7.754131E1,1.9218289E2,3.9627457E1],"split_indices":[1,1,4,1,3,3,1,2,3,3,4,7,3,0,5,0,0,0,0,0,0,0,0,0,0,0,0,0,0,0,0],"split_type":[0,0,0,0,0,0,0,0,0,0,0,0,0,0,0,0,0,0,0,0,0,0,0,0,0,0,0,0,0,0,0],"sum_hessian":[8.98E2,4.78E2,4.2E2,3.01E2,1.77E2,2.49E2,1.71E2,1.05E2,1.96E2,2.9E1,1.48E2,1.2E1,2.37E2,1.06E2,6.5E1,9.1E1,1.4E1,1.2E1,1.84E2,2.8E1,1E0,8.2E1,6.6E1,8E0,4E0,1E0,2.36E2,2E0,1.04E2,4.5E1,2E1],"tree_param":{"num_deleted":"0","num_feature":"12","num_nodes":"31","size_leaf_vector":"1"}},{"base_weights":[-2.5087076E1,-1.675685E3,2.206731E3,-2.5696282E3,-1.0554906E3,1.1815465E3,3.3604868E3,-3.1233503E3,-2.3081177E3,-1.3267914E3,-2.0749843E2,-1.482626E3,1.4012871E3,3.672392E3,6.38688E2,-1.03455864E2,-1.5074443E2,9.475194E1,-8.167302E1,-4.3944744E1,-1.5873532E2,-8.3927447E-1,-1.5034958E2,-8.596153E1,-2.7253706E1,1.8207765E2,4.577624E1,1.0548679E2,3.188419E2,-8.655338E1,9.095514E1],"categories":[],"categories_nodes":[],"categories_segments":[],"categories_sizes":[],"default_left":[0,0,0,0,0,0,0,0,0,0,0,0,0,0,0,0,0,0,0,0,0,0,0,0,0,0,0,0,0,0,0],"id":19,"left_children":[1,3,5,7,9,11,13,15,17,19,21,23,25,27,29,-1,-1,-1,-1,-1,-1,-1,-1,-1,-1,-1,-1,-1,-1,-1,-1],"loss_changes":[3.2235185E9,2.7881702E8,4.3993472E8,2.9661056E7,6.83239E7,1.1538822E8,1.48523E8,8.596864E6,5.2661696E7,3.337664E7,5.505538E7,1.0533592E7,4.691971E7,5.2573363E8,1.1496561E8,0E0,0E0,0E0,0E0,0E0,0E0,0E0,0E0,0E0,0E0,0E0,0E0,0E0,0E0,0E0,0E0],"parents":[2147483647,0,0,1,1,2,2,3,3,4,4,5,5,6,6,7,7,8,8,9,9,10,10,11,11,12,12,13,13,14,14],"right_children":[2,4,6,8,10,12,14,16,18,20,22,24,26,28,30,-1,-1,-1,-1,-1,-1,-1,-1,-1,-1,-1,-1,-1,-1,-1,-1],"split_conditions":[1.3497E4,9.397E3,1.6975E4,7.463E3,1.2133E4,1.2175E4,1.2E1,7.375E3,6.361E3,1.318E4,1.3432E4,1.043E4,1.3567E4,1.1E1,1.7423854E4,-1.03455864E2,-1.5074443E2,9.475194E1,-8.167302E1,-4.3944744E1,-1.5873532E2,-8.3927447E-1,-1.5034958E2,-8.596153E1,-2.7253706E1,1.8207765E2,4.577624E1,1.0548679E2,3.188419E2,-8.655338E1,9.095514E1],"split_indices":[0,1,1,1,2,3,10,1,2,0,0,3,0,10,4,0,0,0,0,0,0,0,0,0,0,0,0,0,0,0,0],"split_type":[0,0,0,0,0,0,0,0,0,0,0,0,0,0,0,0,0,0,0,0,0,0,0,0,0,0,0,0,0,0,0],"sum_hessian":[8.75E2,5.03E2,3.72E2,2.06E2,2.97E2,1.97E2,1.75E2,6.6E1,1.4E2,2.25E2,7.2E1,1.5E1,1.82E2,1.57E2,1.8E1,6.1E1,5E0,2E0,1.38E2,2.22E2,3E0,6.9E1,3E0,6E0,9E0,3E0,1.79E2,1.42E2,1.5E1,7E0,1.1E1],"tree_param":{"num_deleted":"0","num_feature":"12","num_nodes":"31","size_leaf_vector":"1"}},{"base_weights":[1.6569923E1,-1.5710933E3,1.8786332E3,-2.4320996E3,-1.0821875E3,1.2200304E3,3.1248672E3,-2.842579E3,-2.175955E3,-9.219855E2,-3.950408E3,1.4163802E3,-6.644273E2,4.698456E3,2.4722478E3,-9.988629E1,-4.6175148E1,-6.782187E1,-1.019617E2,-3.6528038E1,1.7726582E1,-2.4425806E2,-2.62492E1,3.6508167E1,1.5691765E2,3.7809334E1,-3.393463E2,1.1591411E2,5.760358E2,3.1974878E1,9.728932E1],"categories":[],"categories_nodes":[],"categories_segments":[],"categories_sizes":[],"default_left":[0,0,1,0,0,0,0,0,0,0,0,0,0,0,0,0,0,0,0,0,0,0,0,0,0,0,0,0,0,0,0],"id":20,"left_children":[1,3,5,7,9,11,13,15,17,19,21,23,25,27,29,-1,-1,-1,-1,-1,-1,-1,-1,-1,-1,-1,-1,-1,-1,-1,-1],"loss_changes":[2.601702E9,1.9989517E8,3.323374E8,1.793856E7,1.3914595E8,9.808422E7,1.4352307E8,6.885664E6,1.6596352E7,5.9236224E7,1.6180506E8,2.6656973E8,4.085284E8,6.528831E8,5.562515E7,0E0,0E0,0E0,0E0,0E0,0E0,0E0,0E0,0E0,0E0,0E0,0E0,0E0,0E0,0E0,0E0],"parents":[2147483647,0,0,1,1,2,2,3,3,4,4,5,5,6,6,7,7,8,8,9,9,10,10,11,11,12,12,13,13,14,14],"right_children":[2,4,6,8,10,12,14,16,18,20,22,24,26,28,30,-1,-1,-1,-1,-1,-1,-1,-1,-1,-1,-1,-1,-1,-1,-1,-1],"split_conditions":[1.2648E4,9.135E3,1.7423854E4,7.524E3,1.2E1,1.2E1,1.7946E4,9.138E3,5.266326E2,1.1E1,1.0517E4,1.1E1,1.7502E4,1.69E2,1.6935E4,-9.988629E1,-4.6175148E1,-6.782187E1,-1.019617E2,-3.6528038E1,1.7726582E1,-2.4425806E2,-2.62492E1,3.6508167E1,1.5691765E2,3.7809334E1,-3.393463E2,1.1591411E2,5.760358E2,3.1974878E1,9.728932E1],"split_indices":[1,1,4,1,10,10,3,0,5,10,3,10,1,7,0,0,0,0,0,0,0,0,0,0,0,0,0,0,0,0,0],"split_type":[0,0,0,0,0,0,0,0,0,0,0,0,0,0,0,0,0,0,0,0,0,0,0,0,0,0,0,0,0,0,0],"sum_hessian":[8.8E2,4.75E2,4.05E2,1.72E2,3.03E2,2.65E2,1.4E2,6.6E1,1.06E2,2.87E2,1.6E1,2.4E2,2.5E1,4.1E1,9.9E1,6.3E1,3E0,8.5E1,2.1E1,2.61E2,2.6E1,8E0,8E0,2.16E2,2.4E1,2.1E1,4E0,3.7E1,4E0,1.9E1,8E1],"tree_param":{"num_deleted":"0","num_feature":"12","num_nodes":"31","size_leaf_vector":"1"}},{"base_weights":[-3.89021E1,-1.435307E3,1.8583536E3,-2.4042715E3,-8.463143E2,1.3777019E3,2.9564753E3,-2.9564265E3,-2.1074946E3,-6.6393207E2,-1.869915E3,4.1942337E2,1.7037198E3,3.4653633E3,-3.650067E3,-9.782169E1,-1.4396425E2,-7.582484E1,-1.3101402E1,-2.1329184E1,-1.4648985E2,-1.6057301E2,-4.7150795E1,-7.855259E1,2.2152487E1,4.4496576E2,5.6328E1,9.4720184E1,3.2192117E2,-4.642637E2,-1.0799612E1],"categories":[],"categories_nodes":[],"categories_segments":[],"categories_sizes":[],"default_left":[0,0,0,0,0,0,0,0,0,0,0,0,0,0,0,0,0,0,0,0,0,0,0,0,0,0,0,0,0,0,0],"id":21,"left_children":[1,3,5,7,9,11,13,15,17,19,21,23,25,27,29,-1,-1,-1,-1,-1,-1,-1,-1,-1,-1,-1,-1,-1,-1,-1,-1],"loss_changes":[2.2997422E9,2.853172E8,1.9414758E8,3.0825216E7,5.8030736E7,7.996518E7,3.7689894E8,8.197504E6,2.2052224E7,3.979995E7,6.529024E7,3.997898E7,1.3056762E8,4.324416E8,2.6449885E8,0E0,0E0,0E0,0E0,0E0,0E0,0E0,0E0,0E0,0E0,0E0,0E0,0E0,0E0,0E0,0E0],"parents":[2147483647,0,0,1,1,2,2,3,3,4,4,5,5,6,6,7,7,8,8,9,9,10,10,11,11,12,12,13,13,14,14],"right_children":[2,4,6,8,10,12,14,16,18,20,22,24,26,28,30,-1,-1,-1,-1,-1,-1,-1,-1,-1,-1,-1,-1,-1,-1,-1,-1],"split_conditions":[1.3497E4,9.397E3,1.8029E4,7.463E3,9.219517E2,1.4449E4,1.2E1,7.375E3,1.88E2,1.3432E4,8.838E3,1.0422E4,1.3567E4,1.1E1,1.893E4,-9.782169E1,-1.4396425E2,-7.582484E1,-1.3101402E1,-2.1329184E1,-1.4648985E2,-1.6057301E2,-4.7150795E1,-7.855259E1,2.2152487E1,4.4496576E2,5.6328E1,9.4720184E1,3.2192117E2,-4.642637E2,-1.0799612E1],"split_indices":[0,1,1,1,5,1,10,1,7,0,0,1,0,10,1,0,0,0,0,0,0,0,0,0,0,0,0,0,0,0,0],"split_type":[0,0,0,0,0,0,0,0,0,0,0,0,0,0,0,0,0,0,0,0,0,0,0,0,0,0,0,0,0,0,0],"sum_hessian":[8.68E2,5E2,3.68E2,1.89E2,3.11E2,2.56E2,1.12E2,6.6E1,1.23E2,2.64E2,4.7E1,6.5E1,1.91E2,1.04E2,8E0,6.1E1,5E0,1.16E2,7E0,2.61E2,3E0,7E0,4E1,5E0,6E1,1E0,1.9E2,9.3E1,1.1E1,2E0,6E0],"tree_param":{"num_deleted":"0","num_feature":"12","num_nodes":"31","size_leaf_vector":"1"}},{"base_weights":[7.241029E0,-1.2531423E3,2.2007324E3,-2.103369E3,-6.139892E2,1.944887E3,4.8974194E3,-2.2187288E3,1.1380149E3,-1.00574274E3,3.4361932E2,3.926416E2,2.2513486E3,2.0932379E4,3.5970564E3,-9.71062E1,-6.489848E1,1.3317415E2,-5.533502E1,-7.434188E1,-3.0707611E1,3.5916615E0,3.680939E2,2.3706667E1,-7.229936E1,3.2505792E2,7.399602E1,6.040889E2,8.156107E2,3.5597934E2,9.127495E1],"categories":[],"categories_nodes":[],"categories_segments":[],"categories_sizes":[],"default_left":[0,0,0,0,1,0,0,1,0,0,0,0,0,0,0,0,0,0,0,0,0,0,0,0,0,0,0,0,0,0,0],"id":22,"left_children":[1,3,5,7,9,11,13,15,17,19,21,23,25,27,29,-1,-1,-1,-1,-1,-1,-1,-1,-1,-1,-1,-1,-1,-1,-1,-1],"loss_changes":[2.3638922E9,2.9505747E8,2.1504883E8,8.719136E7,1.1631286E8,1.3556109E8,5.617211E8,4.485965E7,6.076943E7,2.8118368E7,2.2341728E8,3.5171916E7,1.598688E8,9.718272E6,1.5809718E8,0E0,0E0,0E0,0E0,0E0,0E0,0E0,0E0,0E0,0E0,0E0,0E0,0E0,0E0,0E0,0E0],"parents":[2147483647,0,0,1,1,2,2,3,3,4,4,5,5,6,6,7,7,8,8,9,9,10,10,11,11,12,12,13,13,14,14],"right_children":[2,4,6,8,10,12,14,16,18,20,22,24,26,28,30,-1,-1,-1,-1,-1,-1,-1,-1,-1,-1,-1,-1,-1,-1,-1,-1],"split_conditions":[1.4519E4,9.773E3,1.87E2,1.88E2,1.2559E4,1.4549E4,1.1863818E2,7.6000835E3,2.0741534E2,9.171E3,1.61E2,1.9343E4,1.3196E4,1.7002E4,1.5547E4,-9.71062E1,-6.489848E1,1.3317415E2,-5.533502E1,-7.434188E1,-3.0707611E1,3.5916615E0,3.680939E2,2.3706667E1,-7.229936E1,3.2505792E2,7.399602E1,6.040889E2,8.156107E2,3.5597934E2,9.127495E1],"split_indices":[0,0,7,7,2,3,5,4,5,3,7,0,2,0,3,0,0,0,0,0,0,0,0,0,0,0,0,0,0,0,0],"split_type":[0,0,0,0,0,0,0,0,0,0,0,0,0,0,0,0,0,0,0,0,0,0,0,0,0,0,0,0,0,0,0],"sum_hessian":[8.55E2,5.43E2,3.12E2,2.33E2,3.1E2,2.85E2,2.7E1,2.25E2,8E0,2.2E2,9E1,4.7E1,2.38E2,2E0,2.5E1,7.8E1,1.47E2,4E0,4E0,1.9E1,2.01E2,8.8E1,2E0,4.2E1,5E0,3E0,2.35E2,1E0,1E0,3E0,2.2E1],"tree_param":{"num_deleted":"0","num_feature":"12","num_nodes":"31","size_leaf_vector":"1"}},{"base_weights":[-5.911045E0,-1.3420477E3,1.8740062E3,-2.1254304E3,-7.5766406E2,1.567688E3,4.811736E3,-2.7775447E3,-1.8739434E3,-5.454386E2,-3.880789E3,5.0860233E2,2.111428E3,1.8941627E4,3.474745E3,-4.624998E1,-1.0045893E2,-6.1580154E1,-1.09089775E2,-2.960857E1,1.0308409E2,-8.26167E1,-3.994708E2,-6.033249E1,2.4928196E1,8.187103E1,6.7136173E0,5.720889E2,7.882552E2,4.2745407E2,7.478474E1],"categories":[],"categories_nodes":[],"categories_segments":[],"categories_sizes":[],"default_left":[0,0,0,0,0,0,0,0,1,0,0,0,1,0,0,0,0,0,0,0,0,0,0,0,0,0,0,0,0,0,0],"id":23,"left_children":[1,3,5,7,9,11,13,15,17,19,21,23,25,27,29,-1,-1,-1,-1,-1,-1,-1,-1,-1,-1,-1,-1,-1,-1,-1,-1],"loss_changes":[2.2431718E9,2.3893786E8,3.336942E8,3.6449664E7,1.9813766E8,1.9347488E8,6.6011206E8,1.3409536E7,1.6266816E7,3.1646874E8,2.1679696E8,5.652476E7,1.1754682E8,1.8982528E7,3.718571E8,0E0,0E0,0E0,0E0,0E0,0E0,0E0,0E0,0E0,0E0,0E0,0E0,0E0,0E0,0E0,0E0],"parents":[2147483647,0,0,1,1,2,2,3,3,4,4,5,5,6,6,7,7,8,8,9,9,10,10,11,11,12,12,13,13,14,14],"right_children":[2,4,6,8,10,12,14,16,18,20,22,24,26,28,30,-1,-1,-1,-1,-1,-1,-1,-1,-1,-1,-1,-1,-1,-1,-1,-1],"split_conditions":[1.3497E4,9.456E3,1.87E2,7.375E3,1.2E1,1.5629E4,2.2984833E2,6.494E3,9.842985E2,1.1E1,1.2175E4,1.1265E4,1.3275355E3,1.7002E4,1.5547E4,-4.624998E1,-1.0045893E2,-6.1580154E1,-1.09089775E2,-2.960857E1,1.0308409E2,-8.26167E1,-3.994708E2,-6.033249E1,2.4928196E1,8.187103E1,6.7136173E0,5.720889E2,7.882552E2,4.2745407E2,7.478474E1],"split_indices":[0,1,7,2,10,1,5,3,5,10,1,2,5,0,3,0,0,0,0,0,0,0,0,0,0,0,0,0,0,0,0],"split_type":[0,0,0,0,0,0,0,0,0,0,0,0,0,0,0,0,0,0,0,0,0,0,0,0,0,0,0,0,0,0,0],"sum_hessian":[8.93E2,5.22E2,3.71E2,2.23E2,2.99E2,3.36E2,3.5E1,6.2E1,1.61E2,2.8E2,1.9E1,1.14E2,2.22E2,3E0,3.2E1,6E0,5.6E1,1.52E2,9E0,2.57E2,2.3E1,1.6E1,3E0,1E1,1.04E2,1.94E2,2.8E1,2E0,1E0,4E0,2.8E1],"tree_param":{"num_deleted":"0","num_feature":"12","num_nodes":"31","size_leaf_vector":"1"}},{"base_weights":[-1.2640922E1,-1.1638278E3,2.0098406E3,-1.7824396E3,-3.34691E2,1.3777024E3,3.261962E3,-2.4069836E3,-1.4248989E3,-2.8317142E2,-6.495786E3,9.165926E2,2.1018438E3,1.0461272E4,2.9855232E3,-9.372661E1,-6.407173E1,9.3674555E0,-5.2420593E1,-4.7836754E1,-1.2313575E0,2.382212E1,-4.6447845E2,3.5029934E1,-2.0054648E2,2.0321562E2,6.192053E1,4.5156082E2,7.62071E1,8.577324E1,2.0988707E2],"categories":[],"categories_nodes":[],"categories_segments":[],"categories_sizes":[],"default_left":[0,0,0,0,0,1,0,0,0,1,0,0,0,0,0,0,0,0,0,0,0,0,0,0,0,0,0,0,0,0,0],"id":24,"left_children":[1,3,5,7,9,11,13,15,17,19,21,23,25,27,29,-1,-1,-1,-1,-1,-1,-1,-1,-1,-1,-1,-1,-1,-1,-1,-1],"loss_changes":[2.0862179E9,2.9286752E8,2.5714995E8,7.293965E7,7.740179E7,7.20825E7,2.1624934E8,2.0803328E7,3.674787E7,6.654195E7,1.0276894E8,9.398991E7,9.483843E7,8.90839E7,1.5900416E8,0E0,0E0,0E0,0E0,0E0,0E0,0E0,0E0,0E0,0E0,0E0,0E0,0E0,0E0,0E0,0E0],"parents":[2147483647,0,0,1,1,2,2,3,3,4,4,5,5,6,6,7,7,8,8,9,9,10,10,11,11,12,12,13,13,14,14],"right_children":[2,4,6,8,10,12,14,16,18,20,22,24,26,28,30,-1,-1,-1,-1,-1,-1,-1,-1,-1,-1,-1,-1,-1,-1,-1,-1],"split_conditions":[1.4498E4,1.0395E4,1.8046E4,8.156E3,1.4449E4,1.6948479E4,1.5762417E4,7.74E3,7.54E3,1.400287E2,1.4348E4,1.7932E4,1.7028066E4,1.5894E4,2.06E4,-9.372661E1,-6.407173E1,9.3674555E0,-5.2420593E1,-4.7836754E1,-1.2313575E0,2.382212E1,-4.6447845E2,3.5029934E1,-2.0054648E2,2.0321562E2,6.192053E1,4.5156082E2,7.62071E1,8.577324E1,2.0988707E2],"split_indices":[0,1,1,1,0,4,4,2,3,5,1,1,4,0,2,0,0,0,0,0,0,0,0,0,0,0,0,0,0,0,0],"split_type":[0,0,0,0,0,0,0,0,0,0,0,0,0,0,0,0,0,0,0,0,0,0,0,0,0,0,0,0,0,0,0],"sum_hessian":[8.96E2,5.71E2,3.25E2,3.27E2,2.44E2,2.16E2,1.09E2,1.19E2,2.08E2,2.42E2,2E0,1.32E2,8.4E1,4E0,1.05E2,7.4E1,4.5E1,1.2E1,1.96E2,4.4E1,1.98E2,1E0,1E0,1.3E2,2E0,6E0,7.8E1,3E0,1E0,9.1E1,1.4E1],"tree_param":{"num_deleted":"0","num_feature":"12","num_nodes":"31","size_leaf_vector":"1"}},{"base_weights":[2.7737679E1,-1.0732874E3,1.7131439E3,-1.5959415E3,-2.3171977E2,9.7299414E2,2.6665923E3,-1.7271327E3,3.8465826E2,-5.120297E2,1.9237665E3,-7.6137494E2,1.1975245E3,3.164011E3,-1.7749808E3,-8.1149994E1,-4.945011E1,-2.7252817E1,1.7422763E2,-6.284949E1,-9.748242E0,2.1422513E2,1.34143715E1,4.042299E0,-6.221741E1,3.06537E1,5.5908306E1,8.398159E1,2.8880997E2,-2.3581166E2,2.6941133E1],"categories":[],"categories_nodes":[],"categories_segments":[],"categories_sizes":[],"default_left":[0,0,0,0,0,0,0,0,0,0,0,0,0,0,0,0,0,0,0,0,0,0,0,0,0,0,0,0,0,0,0],"id":25,"left_children":[1,3,5,7,9,11,13,15,17,19,21,23,25,27,29,-1,-1,-1,-1,-1,-1,-1,-1,-1,-1,-1,-1,-1,-1,-1,-1],"loss_changes":[1.6015308E9,2.2959885E8,2.4059213E8,8.369101E7,1.2087328E8,7.479824E7,3.2936614E8,5.495328E7,1.11022024E8,5.3235256E7,1.5250264E8,2.0403038E7,2.2309248E7,5.032302E8,1.9642392E8,0E0,0E0,0E0,0E0,0E0,0E0,0E0,0E0,0E0,0E0,0E0,0E0,0E0,0E0,0E0,0E0],"parents":[2147483647,0,0,1,1,2,2,3,3,4,4,5,5,6,6,7,7,8,8,9,9,10,10,11,11,12,12,13,13,14,14],"right_children":[2,4,6,8,10,12,14,16,18,20,22,24,26,28,30,-1,-1,-1,-1,-1,-1,-1,-1,-1,-1,-1,-1,-1,-1,-1,-1],"split_conditions":[1.4087E4,1.0869E4,1.7357E4,1.7E2,1.1E1,1.3366E4,1.2E1,8.156E3,1.0594E4,2E0,1.07728125E4,5.1784155E2,8E0,1.1E1,1.7423854E4,-8.1149994E1,-4.945011E1,-2.7252817E1,1.7422763E2,-6.284949E1,-9.748242E0,2.1422513E2,1.34143715E1,4.042299E0,-6.221741E1,3.06537E1,5.5908306E1,8.398159E1,2.8880997E2,-2.3581166E2,2.6941133E1],"split_indices":[0,1,1,7,10,2,10,1,2,10,4,5,10,10,4,0,0,0,0,0,0,0,0,0,0,0,0,0,0,0,0],"split_type":[0,0,0,0,0,0,0,0,0,0,0,0,0,0,0,0,0,0,0,0,0,0,0,0,0,0,0,0,0,0,0],"sum_hessian":[8.63E2,5.22E2,3.41E2,3.22E2,2E2,1.92E2,1.49E2,3.02E2,2E1,1.77E2,2.3E1,2.2E1,1.7E2,1.34E2,1.5E1,9.3E1,2.09E2,1.6E1,4E0,2.6E1,1.51E2,6E0,1.7E1,1.2E1,1E1,1E2,7E1,1.18E2,1.6E1,5E0,1E1],"tree_param":{"num_deleted":"0","num_feature":"12","num_nodes":"31","size_leaf_vector":"1"}},{"base_weights":[2.1602114E1,-9.5731946E2,1.9662827E3,-1.7130728E3,-4.3765765E2,1.1314413E3,2.8766863E3,-2.166699E3,-1.3822667E3,-2.912769E2,-2.4359841E3,-1.1570436E3,1.2717208E3,3.7187603E3,2.775149E2,-8.334709E1,-6.0207916E1,-9.135579E-1,-5.255598E1,-1.682139E1,6.3192516E1,-5.2024715E1,-4.2556485E2,-1.1056356E2,-1.9119587E1,3.9574368E1,9.857728E1,3.8171942E2,1.070852E2,-9.968942E1,8.234989E1],"categories":[],"categories_nodes":[],"categories_segments":[],"categories_sizes":[],"default_left":[0,0,0,0,0,0,0,0,0,0,0,0,0,0,0,0,0,0,0,0,0,0,0,0,0,0,0,0,0,0,0],"id":26,"left_children":[1,3,5,7,9,11,13,15,17,19,21,23,25,27,29,-1,-1,-1,-1,-1,-1,-1,-1,-1,-1,-1,-1,-1,-1,-1,-1],"loss_changes":[1.7000813E9,2.3327277E8,2.2718886E8,3.624435E7,1.0295086E8,5.012043E7,3.1300083E8,1.0965632E7,2.8577904E7,1.3957386E8,2.1969917E8,1.113384E7,2.7615776E7,4.7616397E8,2.371145E8,0E0,0E0,0E0,0E0,0E0,0E0,0E0,0E0,0E0,0E0,0E0,0E0,0E0,0E0,0E0,0E0],"parents":[2147483647,0,0,1,1,2,2,3,3,4,4,5,5,6,6,7,7,8,8,9,9,10,10,11,11,12,12,13,13,14,14],"right_children":[2,4,6,8,10,12,14,16,18,20,22,24,26,28,30,-1,-1,-1,-1,-1,-1,-1,-1,-1,-1,-1,-1,-1,-1,-1,-1],"split_conditions":[1.4651E4,9.804E3,1.7398E4,8.156E3,1.2E1,1.194E4,1.3275355E3,7.8236665E3,7.54E3,1.1E1,1.3698E4,7.54E3,1.95E2,1.5367E4,1.7474E4,-8.334709E1,-6.0207916E1,-9.135579E-1,-5.255598E1,-1.682139E1,6.3192516E1,-5.2024715E1,-4.2556485E2,-1.1056356E2,-1.9119587E1,3.9574368E1,9.857728E1,3.8171942E2,1.070852E2,-9.968942E1,8.234989E1],"split_indices":[0,1,1,1,10,3,5,4,3,10,1,3,7,3,3,0,0,0,0,0,0,0,0,0,0,0,0,0,0,0,0],"split_type":[0,0,0,0,0,0,0,0,0,0,0,0,0,0,0,0,0,0,0,0,0,0,0,0,0,0,0,0,0,0,0],"sum_hessian":[8.93E2,5.94E2,2.99E2,2.42E2,3.52E2,1.56E2,1.43E2,1.02E2,1.4E2,3.28E2,2.4E1,9E0,1.47E2,1.08E2,3.5E1,6.2E1,4E1,1.4E1,1.26E2,3E2,2.8E1,2.2E1,2E0,2E0,7E0,1.37E2,1E1,8E0,1E2,1.4E1,2.1E1],"tree_param":{"num_deleted":"0","num_feature":"12","num_nodes":"31","size_leaf_vector":"1"}},{"base_weights":[-4.42636E-1,-1.2412277E3,1.4574625E3,-1.963652E3,-7.5948706E2,1.6661644E3,-1.424636E3,-2.5162114E3,-1.6501089E3,2.308289E2,-7.86687E2,1.3649786E3,4.9854917E3,7.183619E1,-9.982641E3,-1.2979657E2,-8.201405E1,-5.4329662E1,-1.8705359E2,-2.196869E1,-5.709189E1,2.1592392E1,7.513263E1,1.3319066E2,7.107091E2,-3.7674323E2,2.0066353E1,3.5080124E1,-4.6740985E2],"categories":[],"categories_nodes":[],"categories_segments":[],"categories_sizes":[],"default_left":[0,0,0,0,0,0,1,0,0,0,0,1,0,0,0,0,0,0,0,0,0,0,0,0,0,0,0,0,0],"id":27,"left_children":[1,3,5,7,9,11,13,15,17,-1,19,21,23,25,27,-1,-1,-1,-1,-1,-1,-1,-1,-1,-1,-1,-1,-1,-1],"loss_changes":[1.5738638E9,1.6353882E8,2.4066656E8,3.247392E7,5.757525E7,3.7275834E8,3.4610582E8,1.0509728E7,2.9725152E7,0E0,3.600125E7,2.0775373E8,5.3579942E8,1.3084981E8,1.6190672E8,0E0,0E0,0E0,0E0,0E0,0E0,0E0,0E0,0E0,0E0,0E0,0E0,0E0,0E0],"parents":[2147483647,0,0,1,1,2,2,3,3,4,4,5,5,6,6,7,7,8,8,10,10,11,11,12,12,13,13,14,14],"right_children":[2,4,6,8,10,12,14,16,18,-1,20,22,24,26,28,-1,-1,-1,-1,-1,-1,-1,-1,-1,-1,-1,-1,-1,-1],"split_conditions":[1.2797E4,9.304E3,1.2E1,7.697E3,7.138E3,1.1E1,1.9231428E3,6.535E3,9.271E3,2.308289E2,8.4577875E2,1.6364E4,2.1058E4,1.3497E4,1.5894E4,-1.2979657E2,-8.201405E1,-5.4329662E1,-1.8705359E2,-2.196869E1,-5.709189E1,2.1592392E1,7.513263E1,1.3319066E2,7.107091E2,-3.7674323E2,2.0066353E1,3.5080124E1,-4.6740985E2],"split_indices":[1,1,10,2,2,10,5,3,1,0,5,3,1,0,0,0,0,0,0,0,0,0,0,0,0,0,0,0,0],"split_type":[0,0,0,0,0,0,0,0,0,0,0,0,0,0,0,0,0,0,0,0,0,0,0,0,0,0,0,0,0],"sum_hessian":[8.7E2,4.7E2,4E2,1.88E2,2.82E2,3.73E2,2.7E1,6.8E1,1.2E2,1E0,2.81E2,3.42E2,3.1E1,2.3E1,4E0,6E0,6.2E1,1.18E2,2E0,2.41E2,4E1,1.81E2,1.61E2,2.9E1,2E0,1E0,2.2E1,1E0,3E0],"tree_param":{"num_deleted":"0","num_feature":"12","num_nodes":"29","size_leaf_vector":"1"}},{"base_weights":[-2.1029823E1,-1.2674178E3,1.5541567E3,-1.9315397E3,-7.551772E2,1.1363323E3,2.8679731E3,-1.7924664E3,-3.579429E3,-8.803402E2,1.2090758E3,7.0102485E3,1.0569629E3,1.7230154E4,2.5583652E3,-8.260952E1,-5.2718536E1,-1.086821E2,-3.4010483E2,-2.8962532E1,-1.898748E2,1.4723491E2,-5.2694782E1,3.1509286E2,1.4102071E1,-1.07403244E2,3.869912E1,4.227415E2,7.4584924E2,1.02332726E2,-5.0217953E1],"categories":[],"categories_nodes":[],"categories_segments":[],"categories_sizes":[],"default_left":[0,1,0,0,0,0,0,0,1,0,0,0,0,0,0,0,0,0,0,0,0,0,0,0,0,0,0,0,0,0,0],"id":28,"left_children":[1,3,5,7,9,11,13,15,17,19,21,23,25,27,29,-1,-1,-1,-1,-1,-1,-1,-1,-1,-1,-1,-1,-1,-1,-1,-1],"loss_changes":[1.7690147E9,1.7108525E8,2.1841133E8,5.0040896E7,6.985038E7,1.4062358E8,4.2595443E8,3.1675392E7,4.347912E7,4.4183536E7,1.443613E8,5.775163E7,8.963667E7,3.878336E7,1.6133587E8,0E0,0E0,0E0,0E0,0E0,0E0,0E0,0E0,0E0,0E0,0E0,0E0,0E0,0E0,0E0,0E0],"parents":[2147483647,0,0,1,1,2,2,3,3,4,4,5,5,6,6,7,7,8,8,9,9,10,10,11,11,12,12,13,13,14,14],"right_children":[2,4,6,8,10,12,14,16,18,20,22,24,26,28,30,-1,-1,-1,-1,-1,-1,-1,-1,-1,-1,-1,-1,-1,-1,-1,-1],"split_conditions":[1.2884E4,9.404625E3,1.8458E4,1.2E1,1.71E2,1.3008E4,1.1863818E2,7.468E3,1.4045742E3,1.62E2,2.07E2,1.194E4,1.0292E4,1.791E4,1.2E1,-8.260952E1,-5.2718536E1,-1.086821E2,-3.4010483E2,-2.8962532E1,-1.898748E2,1.4723491E2,-5.2694782E1,3.1509286E2,1.4102071E1,-1.07403244E2,3.869912E1,4.227415E2,7.4584924E2,1.02332726E2,-5.0217953E1],"split_indices":[1,4,1,10,7,1,5,0,5,7,7,0,0,0,10,0,0,0,0,0,0,0,0,0,0,0,0,0,0,0,0],"split_type":[0,0,0,0,0,0,0,0,0,0,0,0,0,0,0,0,0,0,0,0,0,0,0,0,0,0,0,0,0,0,0],"sum_hessian":[9.01E2,5.03E2,3.98E2,2.19E2,2.84E2,3.02E2,9.6E1,2.02E2,1.7E1,2.67E2,1.7E1,4E0,2.98E2,2E0,9.4E1,5.9E1,1.43E2,1.6E1,1E0,2.65E2,2E0,8E0,9E0,3E0,1E0,5E0,2.93E2,1E0,1E0,8.5E1,9E0],"tree_param":{"num_deleted":"0","num_feature":"12","num_nodes":"31","size_leaf_vector":"1"}},{"base_weights":[1.5455423E2,-1.1336848E3,1.6205762E3,-1.8801145E3,-7.83683E2,9.636256E2,2.5688086E3,-1.9455084E3,2.926147E3,-6.552601E2,-2.4396853E3,5.342872E3,8.715117E2,3.2712188E3,-2.6566948E1,-6.907481E1,-2.5145132E1,2.248551E2,-2.6314848E1,-2.6331783E1,2.3556852E1,-5.6471813E1,-2.6305212E2,3.0436902E2,3.358896E-2,1.51589775E1,5.0691612E1,8.689567E1,2.3277934E2,2.3137157E1,-2.636849E2],"categories":[],"categories_nodes":[],"categories_segments":[],"categories_sizes":[],"default_left":[0,0,0,0,0,0,1,0,0,0,0,0,1,0,0,0,0,0,0,0,0,0,0,0,0,0,0,0,0,0,0],"id":29,"left_children":[1,3,5,7,9,11,13,15,17,19,21,23,25,27,29,-1,-1,-1,-1,-1,-1,-1,-1,-1,-1,-1,-1,-1,-1,-1,-1],"loss_changes":[1.667706E9,1.2275578E8,2.572265E8,4.727677E7,6.801664E7,9.831938E7,3.081394E8,1.2363328E7,2.7253132E7,4.495739E7,9.518245E7,9.480165E7,6.2275056E7,3.444124E8,1.9376552E8,0E0,0E0,0E0,0E0,0E0,0E0,0E0,0E0,0E0,0E0,0E0,0E0,0E0,0E0,0E0,0E0],"parents":[2147483647,0,0,1,1,2,2,3,3,4,4,5,5,6,6,7,7,8,8,9,9,10,10,11,11,12,12,13,13,14,14],"right_children":[2,4,6,8,10,12,14,16,18,20,22,24,26,28,30,-1,-1,-1,-1,-1,-1,-1,-1,-1,-1,-1,-1,-1,-1,-1,-1],"split_conditions":[1.2884E4,8.699E3,1.7357E4,1.1448E4,1.2E1,1.3008E4,1.118487E3,1.88E2,8.108E3,1.7E2,1.2338E4,1.194E4,1.57110625E4,1.1E1,1.54E2,-6.907481E1,-2.5145132E1,2.248551E2,-2.6314848E1,-2.6331783E1,2.3556852E1,-5.6471813E1,-2.6305212E2,3.0436902E2,3.358896E-2,1.51589775E1,5.0691612E1,8.689567E1,2.3277934E2,2.3137157E1,-2.636849E2],"split_indices":[1,2,1,1,10,1,5,7,0,7,1,0,4,10,7,0,0,0,0,0,0,0,0,0,0,0,0,0,0,0,0],"split_type":[0,0,0,0,0,0,0,0,0,0,0,0,0,0,0,0,0,0,0,0,0,0,0,0,0,0,0,0,0,0,0],"sum_hessian":[8.83E2,4.7E2,4.13E2,1.5E2,3.2E2,2.44E2,1.69E2,1.48E2,2E0,2.97E2,2.3E1,5E0,2.39E2,1.33E2,3.6E1,1.4E2,8E0,1E0,1E0,2.74E2,2.3E1,2E1,3E0,3E0,2E0,1.4E2,9.9E1,1.1E2,2.3E1,3.3E1,3E0],"tree_param":{"num_deleted":"0","num_feature":"12","num_nodes":"31","size_leaf_vector":"1"}},{"base_weights":[-3.1605066E1,-1.0744987E3,1.1898352E3,-1.9515417E3,-8.047167E2,1.4709968E3,8.906411E1,-2.2023657E3,-1.3575371E3,2.7915322E3,-8.3503033E2,1.0028315E3,2.4757168E3,-2.0982468E3,7.0479364E2,-7.790335E0,-7.729001E1,-6.0624294E0,-5.2117767E1,-8.5118454E1,1.8610449E2,-3.7846622E1,-1.7349169E1,1.21498985E2,3.0637337E1,3.9495016E2,8.172686E1,-3.2452938E1,-1.0338337E2,4.7266106E1,-5.827802E1],"categories":[],"categories_nodes":[],"categories_segments":[],"categories_sizes":[],"default_left":[0,0,0,0,0,0,0,0,1,0,0,0,0,0,0,0,0,0,0,0,0,0,0,0,0,0,0,0,0,0,0],"id":30,"left_children":[1,3,5,7,9,11,13,15,17,19,21,23,25,27,29,-1,-1,-1,-1,-1,-1,-1,-1,-1,-1,-1,-1,-1,-1,-1,-1],"loss_changes":[1.1146598E9,1.1164467E8,1.2472704E8,1.6467264E7,3.940491E7,1.5093843E8,1.1049695E8,7.97664E6,6.327364E6,4.232917E7,3.1648608E7,6.072547E7,8.43129E7,1.8962608E7,1.03773144E8,0E0,0E0,0E0,0E0,0E0,0E0,0E0,0E0,0E0,0E0,0E0,0E0,0E0,0E0,0E0,0E0],"parents":[2147483647,0,0,1,1,2,2,3,3,4,4,5,5,6,6,7,7,8,8,9,9,10,10,11,11,12,12,13,13,14,14],"right_children":[2,4,6,8,10,12,14,16,18,20,22,24,26,28,30,-1,-1,-1,-1,-1,-1,-1,-1,-1,-1,-1,-1,-1,-1,-1,-1],"split_conditions":[1.2797E4,8.079E3,9.219517E2,7.74E3,7.138E3,1.7398E4,1.3216E4,6.361E3,8.1154816E1,8.882794E1,1.0422E4,1.3055E4,1.2382E4,1.5912E4,1.2E1,-7.790335E0,-7.729001E1,-6.0624294E0,-5.2117767E1,-8.5118454E1,1.8610449E2,-3.7846622E1,-1.7349169E1,1.21498985E2,3.0637337E1,3.9495016E2,8.172686E1,-3.2452938E1,-1.0338337E2,4.7266106E1,-5.827802E1],"split_indices":[1,1,5,2,2,1,2,2,5,5,1,1,2,1,10,0,0,0,0,0,0,0,0,0,0,0,0,0,0,0,0],"split_type":[0,0,0,0,0,0,0,0,0,0,0,0,0,0,0,0,0,0,0,0,0,0,0,0,0,0,0,0,0,0,0],"sum_hessian":[8.75E2,4.72E2,4.03E2,1.11E2,3.61E2,3.21E2,8.2E1,7.8E1,3.3E1,3E0,3.58E2,2.19E2,1.02E2,1.8E1,6.4E1,2E0,7.6E1,4E0,2.9E1,1E0,2E0,1.97E2,1.61E2,9E0,2.1E2,1E0,1.01E2,8E0,1E1,5E1,1.4E1],"tree_param":{"num_deleted":"0","num_feature":"12","num_nodes":"31","size_leaf_vector":"1"}},{"base_weights":[1.5278905E1,-1.249064E3,1.2034302E3,-1.8662302E3,-7.879714E2,6.865652E2,2.4272488E3,-5.881068E2,-1.9334023E3,-9.3008826E2,-9.45389E1,-3.0178843E3,7.70976E2,1.6306814E3,5.7011494E3,1.1297466E2,-5.845161E1,-7.6893486E1,-5.2370407E1,-2.0657253E1,-4.1072933E1,-1.1029611E1,1.4704247E2,-2.485036E1,-1.16424545E2,2.6762088E2,2.483817E1,6.4755486E1,-4.0401633E2,3.900304E2,2.8349884E1],"categories":[],"categories_nodes":[],"categories_segments":[],"categories_sizes":[],"default_left":[0,0,0,1,0,0,0,0,1,0,0,0,0,0,0,0,0,0,0,0,0,0,0,0,0,0,0,0,0,0,0],"id":31,"left_children":[1,3,5,7,9,11,13,15,17,19,21,23,25,27,29,-1,-1,-1,-1,-1,-1,-1,-1,-1,-1,-1,-1,-1,-1,-1,-1],"loss_changes":[1.3055052E9,1.1977235E8,2.8335245E8,1.5425088E7,2.3748272E7,9.855323E7,3.4668403E8,3.924436E7,2.1388288E7,1.7531136E7,4.0865676E7,6.019336E6,1.0071478E8,3.708238E8,7.1951354E8,0E0,0E0,0E0,0E0,0E0,0E0,0E0,0E0,0E0,0E0,0E0,0E0,0E0,0E0,0E0,0E0],"parents":[2147483647,0,0,1,1,2,2,3,3,4,4,5,5,6,6,7,7,8,8,9,9,10,10,11,11,12,12,13,13,14,14],"right_children":[2,4,6,8,10,12,14,16,18,20,22,24,26,28,30,-1,-1,-1,-1,-1,-1,-1,-1,-1,-1,-1,-1,-1,-1,-1,-1],"split_conditions":[1.1854E4,9.135E3,1.7825E4,6.361E3,1.1214E4,9.205E3,1.71E2,6.706E3,8.4135625E3,1.5E1,1.59E2,1.2376E4,8.566E3,1.69E2,1.7946E4,1.1297466E2,-5.845161E1,-7.6893486E1,-5.2370407E1,-2.0657253E1,-4.1072933E1,-1.1029611E1,1.4704247E2,-2.485036E1,-1.16424545E2,2.6762088E2,2.483817E1,6.4755486E1,-4.0401633E2,3.900304E2,2.8349884E1],"split_indices":[1,1,2,2,1,3,7,3,4,7,7,1,2,7,3,0,0,0,0,0,0,0,0,0,0,0,0,0,0,0,0],"split_type":[0,0,0,0,0,0,0,0,0,0,0,0,0,0,0,0,0,0,0,0,0,0,0,0,0,0,0,0,0,0,0],"sum_hessian":[8.69E2,4.21E2,4.48E2,1.8E2,2.41E2,3.15E2,1.33E2,9E0,1.71E2,2E2,4.1E1,7E0,3.08E2,1.07E2,2.6E1,2E0,7E0,9.7E1,7.4E1,9E1,1.1E2,3.9E1,2E0,1E0,6E0,2E0,3.06E2,1.05E2,2E0,1.2E1,1.4E1],"tree_param":{"num_deleted":"0","num_feature":"12","num_nodes":"31","size_leaf_vector":"1"}},{"base_weights":[-7.878326E0,-1.06899E3,1.2461478E3,-1.374704E3,-2.9585977E2,7.254837E2,3.1430076E3,-1.7102083E3,-9.583132E2,-6.32557E2,1.2520488E3,4.1238763E2,1.3373481E3,3.7342935E3,4.0679102E2,-4.8312035E1,-6.959987E1,-3.5387344E1,2.1648521E1,-1.6360964E1,-9.268823E1,7.239746E1,-1.7209508E2,1.6130255E1,-4.0680844E2,4.8897945E1,-1.8613705E1,1.0006801E2,2.588706E2,4.968886E1,-2.339995E2],"categories":[],"categories_nodes":[],"categories_segments":[],"categories_sizes":[],"default_left":[1,0,0,0,0,1,0,0,1,0,0,0,0,0,0,0,0,0,0,0,0,0,0,0,0,0,0,0,0,0,0],"id":32,"left_children":[1,3,5,7,9,11,13,15,17,19,21,23,25,27,29,-1,-1,-1,-1,-1,-1,-1,-1,-1,-1,-1,-1,-1,-1,-1,-1],"loss_changes":[1.2136225E9,1.1675283E8,4.1279123E8,4.9415296E7,7.299265E7,6.282408E7,1.4560333E8,1.8803328E7,1.855248E7,3.6972624E7,1.3510414E8,1.5481491E8,1.8557008E7,2.298969E8,1.2099187E8,0E0,0E0,0E0,0E0,0E0,0E0,0E0,0E0,0E0,0E0,0E0,0E0,0E0,0E0,0E0,0E0],"parents":[2147483647,0,0,1,1,2,2,3,3,4,4,5,5,6,6,7,7,8,8,9,9,10,10,11,11,12,12,13,13,14,14],"right_children":[2,4,6,8,10,12,14,16,18,20,22,24,26,28,30,-1,-1,-1,-1,-1,-1,-1,-1,-1,-1,-1,-1,-1,-1,-1,-1],"split_conditions":[1.2853E4,1.0945E4,1.8516E4,9.363E3,4E0,1.6816916E4,2.0634E4,1.13E2,1.2133E4,1.5821E4,1.62E2,1.8191E4,2.58E2,1.77E2,2.0559E4,-4.8312035E1,-6.959987E1,-3.5387344E1,2.1648521E1,-1.6360964E1,-9.268823E1,7.239746E1,-1.7209508E2,1.6130255E1,-4.0680844E2,4.8897945E1,-1.8613705E1,1.0006801E2,2.588706E2,4.968886E1,-2.339995E2],"split_indices":[2,1,1,2,11,4,0,6,2,1,7,1,7,7,3,0,0,0,0,0,0,0,0,0,0,0,0,0,0,0,0],"split_type":[0,0,0,0,0,0,0,0,0,0,0,0,0,0,0,0,0,0,0,0,0,0,0,0,0,0,0,0,0,0,0],"sum_hessian":[9.12E2,4.94E2,4.18E2,3.54E2,1.4E2,3.28E2,9E1,1.96E2,1.58E2,1.15E2,2.5E1,2.17E2,1.11E2,7.4E1,1.6E1,1.01E2,9.5E1,1.51E2,7E0,1.07E2,8E0,2.2E1,3E0,2.16E2,1E0,1.06E2,5E0,6.1E1,1.3E1,1.4E1,2E0],"tree_param":{"num_deleted":"0","num_feature":"12","num_nodes":"31","size_leaf_vector":"1"}},{"base_weights":[-1.6519592E1,-1.01163464E3,1.2393274E3,-1.8999963E3,-7.7875055E2,6.980989E2,2.1436824E3,-2.6705166E3,-1.7016946E3,-6.280839E2,-1.801219E3,4.958319E2,1.9288605E3,2.59522E3,-2.2642258E3,-7.509458E1,-1.5663818E2,-6.3191307E1,-3.4043224E1,-6.0147934E0,-3.9517673E1,-4.019511E1,-1.548577E2,-4.1929222E1,2.2449772E1,3.2184723E2,3.0640972E1,7.405037E1,2.1955766E2,-3.2121768E2,3.1145016E1],"categories":[],"categories_nodes":[],"categories_segments":[],"categories_sizes":[],"default_left":[0,0,0,0,0,0,0,0,0,0,0,0,0,0,0,0,0,0,0,0,0,0,0,0,0,0,0,0,0,0,0],"id":33,"left_children":[1,3,5,7,9,11,13,15,17,19,21,23,25,27,29,-1,-1,-1,-1,-1,-1,-1,-1,-1,-1,-1,-1,-1,-1,-1,-1],"loss_changes":[1.0573118E9,9.761594E7,1.8303078E8,1.4867072E7,5.7588576E7,5.823172E7,2.7882272E8,1.8015952E7,7.769568E6,7.73943E7,8.187592E7,5.492983E7,2.5474176E8,2.1033395E8,2.9372058E8,0E0,0E0,0E0,0E0,0E0,0E0,0E0,0E0,0E0,0E0,0E0,0E0,0E0,0E0,0E0,0E0],"parents":[2147483647,0,0,1,1,2,2,3,3,4,4,5,5,6,6,7,7,8,8,9,9,10,10,11,11,12,12,13,13,14,14],"right_children":[2,4,6,8,10,12,14,16,18,20,22,24,26,28,30,-1,-1,-1,-1,-1,-1,-1,-1,-1,-1,-1,-1,-1,-1,-1,-1],"split_conditions":[1.2844E4,8.156E3,1.7398E4,6.88E3,8.623193E2,1.1E1,1.2E1,7.375E3,7.6E1,1.13E2,1.58E2,1.232E4,1.2611E4,1.1E1,1.7474E4,-7.509458E1,-1.5663818E2,-6.3191307E1,-3.4043224E1,-6.0147934E0,-3.9517673E1,-4.019511E1,-1.548577E2,-4.1929222E1,2.2449772E1,3.2184723E2,3.0640972E1,7.405037E1,2.1955766E2,-3.2121768E2,3.1145016E1],"split_indices":[1,1,1,2,5,10,10,1,7,6,7,2,2,10,3,0,0,0,0,0,0,0,0,0,0,0,0,0,0,0,0],"split_type":[0,0,0,0,0,0,0,0,0,0,0,0,0,0,0,0,0,0,0,0,0,0,0,0,0,0,0,0,0,0,0],"sum_hessian":[8.46E2,4.72E2,3.74E2,9.8E1,3.74E2,2.34E2,1.4E2,2E1,7.8E1,3.26E2,4.8E1,2.01E2,3.3E1,1.27E2,1.3E1,1.6E1,4E0,6.5E1,1.3E1,1.75E2,1.51E2,3.9E1,9E0,1.7E1,1.84E2,4E0,2.9E1,1.14E2,1.3E1,4E0,9E0],"tree_param":{"num_deleted":"0","num_feature":"12","num_nodes":"31","size_leaf_vector":"1"}},{"base_weights":[-9.9031555E1,-8.928051E2,1.191111E3,-1.755858E3,-5.7868884E2,6.006894E2,1.7187101E3,-1.6636907E3,-3.3479443E3,-2.935591E2,-8.9657855E2,-1.1776567E3,7.9844934E2,5.338648E3,1.52638E3,-6.0543724E1,-2.5727865E1,2.951077E1,-1.6283289E2,-1.9545479E1,4.5565395E1,-2.8521986E1,-4.424104E2,-7.963395E1,-1.6692453E1,3.6940563E1,1.6174308E0,5.0048938E2,9.103599E1,2.6384705E2,4.978131E1],"categories":[],"categories_nodes":[],"categories_segments":[],"categories_sizes":[],"default_left":[0,0,1,0,0,0,0,0,0,0,0,0,1,0,0,0,0,0,0,0,0,0,0,0,0,0,0,0,0,0,0],"id":34,"left_children":[1,3,5,7,9,11,13,15,17,19,21,23,25,27,29,-1,-1,-1,-1,-1,-1,-1,-1,-1,-1,-1,-1,-1,-1,-1,-1],"loss_changes":[9.1147795E8,1.4935411E8,1.0557962E8,2.1439328E7,3.6612176E7,5.6297696E7,1.2444365E8,1.2931872E7,4.7408624E7,9.5583496E7,1.4814502E8,1.264148E7,3.0179688E7,2.2326296E8,7.78328E7,0E0,0E0,0E0,0E0,0E0,0E0,0E0,0E0,0E0,0E0,0E0,0E0,0E0,0E0,0E0,0E0],"parents":[2147483647,0,0,1,1,2,2,3,3,4,4,5,5,6,6,7,7,8,8,9,9,10,10,11,11,12,12,13,13,14,14],"right_children":[2,4,6,8,10,12,14,16,18,20,22,24,26,28,30,-1,-1,-1,-1,-1,-1,-1,-1,-1,-1,-1,-1,-1,-1,-1,-1],"split_conditions":[1.4519E4,8.561E3,1.6948479E4,1.2E1,1.13E2,1.2884E4,1.7061334E4,1.1E1,7.183E3,1.1E1,1.4449E4,1.043E4,1.61724375E4,1.5547E4,1.5083E4,-6.0543724E1,-2.5727865E1,2.951077E1,-1.6283289E2,-1.9545479E1,4.5565395E1,-2.8521986E1,-4.424104E2,-7.963395E1,-1.6692453E1,3.6940563E1,1.6174308E0,5.0048938E2,9.103599E1,2.6384705E2,4.978131E1],"split_indices":[0,0,4,10,6,3,4,10,1,10,0,3,4,3,0,0,0,0,0,0,0,0,0,0,0,0,0,0,0,0,0],"split_type":[0,0,0,0,0,0,0,0,0,0,0,0,0,0,0,0,0,0,0,0,0,0,0,0,0,0,0,0,0,0,0],"sum_hessian":[8.9E2,5.51E2,3.39E2,1.47E2,4.04E2,1.6E2,1.79E2,1.39E2,8E0,2.13E2,1.91E2,1.6E1,1.44E2,9E0,1.7E2,1.25E2,1.4E1,2E0,6E0,1.82E2,3.1E1,1.9E2,1E0,6E0,1E1,1.05E2,3.9E1,2E0,7E0,2E0,1.68E2],"tree_param":{"num_deleted":"0","num_feature":"12","num_nodes":"31","size_leaf_vector":"1"}},{"base_weights":[4.050637E1,-7.514054E2,1.4601744E3,-1.3937148E3,-2.7524457E2,1.0509008E3,2.6251768E3,-1.6449521E3,-1.01788354E3,-5.5644147E2,2.436801E2,-2.3835332E3,1.1942427E3,1.1242751E4,2.162345E3,1.9727718E1,-5.8658844E1,-2.3177816E1,-5.040801E1,2.5245745E0,-2.8577105E1,2.5531805E1,-1.080518E1,-1.0669088E2,-3.1346174E1,4.4807377E1,-3.0944637E1,1.396554E2,6.270167E2,5.7295227E1,1.6229576E2],"categories":[],"categories_nodes":[],"categories_segments":[],"categories_sizes":[],"default_left":[0,0,0,0,0,0,0,0,0,0,0,0,0,0,0,0,0,0,0,0,0,0,0,0,0,0,0,0,0,0,0],"id":35,"left_children":[1,3,5,7,9,11,13,15,17,19,21,23,25,27,29,-1,-1,-1,-1,-1,-1,-1,-1,-1,-1,-1,-1,-1,-1,-1,-1],"loss_changes":[9.545408E8,1.66679E8,1.4489024E8,2.1865376E7,4.567988E7,1.1083901E8,3.1461005E8,2.0361984E7,1.4358088E7,3.544109E7,3.0807772E7,9.581592E6,5.1031744E7,2.0145142E8,9.457507E7,0E0,0E0,0E0,0E0,0E0,0E0,0E0,0E0,0E0,0E0,0E0,0E0,0E0,0E0,0E0,0E0],"parents":[2147483647,0,0,1,1,2,2,3,3,4,4,5,5,6,6,7,7,8,8,9,9,10,10,11,11,12,12,13,13,14,14],"right_children":[2,4,6,8,10,12,14,16,18,20,22,24,26,28,30,-1,-1,-1,-1,-1,-1,-1,-1,-1,-1,-1,-1,-1,-1,-1,-1],"split_conditions":[1.4519E4,9.849E3,1.8547E4,8.579E3,1.2059E4,1.1623E4,1.3919124E2,6.361E3,2.5E1,2.0741534E2,1.13E2,1.4045742E3,1.2E1,1.9075E4,2.1058E4,1.9727718E1,-5.8658844E1,-2.3177816E1,-5.040801E1,2.5245745E0,-2.8577105E1,2.5531805E1,-1.080518E1,-1.0669088E2,-3.1346174E1,4.4807377E1,-3.0944637E1,1.396554E2,6.270167E2,5.7295227E1,1.6229576E2],"split_indices":[1,2,0,2,1,0,5,2,7,5,6,5,10,0,1,0,0,0,0,0,0,0,0,0,0,0,0,0,0,0,0],"split_type":[0,0,0,0,0,0,0,0,0,0,0,0,0,0,0,0,0,0,0,0,0,0,0,0,0,0,0,0,0,0,0],"sum_hessian":[8.49E2,5.45E2,3.04E2,2.32E2,3.13E2,2.25E2,7.9E1,1.39E2,9.3E1,2.03E2,1.1E2,9E0,2.16E2,4E0,7.5E1,4E0,1.35E2,5.3E1,4E1,6.2E1,1.41E2,5.8E1,5.2E1,6E0,3E0,2.05E2,1.1E1,2E0,2E0,6.3E1,1.2E1],"tree_param":{"num_deleted":"0","num_feature":"12","num_nodes":"31","size_leaf_vector":"1"}},{"base_weights":[3.9173054E1,-8.6778876E2,1.3154323E3,-1.138913E3,-5.4342594E1,8.587702E2,2.0979912E3,-1.6711318E3,-9.4938635E2,1.202786E2,-2.6452185E3,9.935592E2,-2.415223E3,7.487847E3,1.7055011E3,-2.697968E1,-5.9925797E1,-2.9950056E1,-7.85611E1,-9.945668E0,1.5717128E2,-2.608037E2,1.2058806E1,1.5399969E1,5.507886E1,1.9189592E1,-4.3612393E2,1.5539758E2,6.057551E2,4.5902576E2,5.5136257E1],"categories":[],"categories_nodes":[],"categories_segments":[],"categories_sizes":[],"default_left":[1,0,0,0,0,0,0,0,0,0,0,0,0,0,0,0,0,0,0,0,0,0,0,0,0,0,0,0,0,0,0],"id":36,"left_children":[1,3,5,7,9,11,13,15,17,19,21,23,25,27,29,-1,-1,-1,-1,-1,-1,-1,-1,-1,-1,-1,-1,-1,-1,-1,-1],"loss_changes":[1.0059355E9,1.1203786E8,1.2897043E8,3.83928E7,5.7479996E7,1.0067629E8,2.8110035E8,6.74416E6,2.8558432E7,2.1805408E8,1.1935637E8,7.305589E7,2.767668E8,2.6961504E8,1.4061232E8,0E0,0E0,0E0,0E0,0E0,0E0,0E0,0E0,0E0,0E0,0E0,0E0,0E0,0E0,0E0,0E0],"parents":[2147483647,0,0,1,1,2,2,3,3,4,4,5,5,6,6,7,7,8,8,9,9,10,10,11,11,12,12,13,13,14,14],"right_children":[2,4,6,8,10,12,14,16,18,20,22,24,26,28,30,-1,-1,-1,-1,-1,-1,-1,-1,-1,-1,-1,-1,-1,-1,-1,-1],"split_conditions":[1.29478955E4,1.1329E4,1.7423854E4,8.156E3,1.2E1,1.7318375E4,1.3919124E2,6.494E3,1.2E1,1.1E1,1.1226E4,3.7150113E2,1E1,1.9525E4,1.7453521E4,-2.697968E1,-5.9925797E1,-2.9950056E1,-7.85611E1,-9.945668E0,1.5717128E2,-2.608037E2,1.2058806E1,1.5399969E1,5.507886E1,1.9189592E1,-4.3612393E2,1.5539758E2,6.057551E2,4.5902576E2,5.5136257E1],"split_indices":[4,1,4,1,10,4,5,3,10,10,3,5,10,1,4,0,0,0,0,0,0,0,0,0,0,0,0,0,0,0,0],"split_type":[0,0,0,0,0,0,0,0,0,0,0,0,0,0,0,0,0,0,0,0,0,0,0,0,0,0,0,0,0,0,0],"sum_hessian":[8.69E2,5.08E2,3.61E2,3.81E2,1.27E2,2.28E2,1.33E2,1E2,2.81E2,1.19E2,8E0,2.19E2,9E0,9E0,1.24E2,8E0,9.2E1,2.66E2,1.5E1,1.09E2,1E1,3E0,5E0,1.16E2,1.03E2,7E0,2E0,7E0,2E0,1E0,1.23E2],"tree_param":{"num_deleted":"0","num_feature":"12","num_nodes":"31","size_leaf_vector":"1"}},{"base_weights":[-3.839194E1,-8.438179E2,1.141519E3,-1.1141748E3,-2.0770439E2,8.533205E2,3.1901423E3,-1.4054973E3,-7.61275E2,3.903651E2,-8.2127075E2,9.4670154E2,-6.3251567E3,4.711581E2,2.1278713E3,-4.4802486E1,-9.700843E1,-2.0103905E1,-4.172865E1,-7.2649903E0,1.2848201E2,-1.9559324E1,-1.5133792E2,9.889698E0,4.583494E1,2.8076483E2,-3.8361566E2,6.479134E2,5.785192E1],"categories":[],"categories_nodes":[],"categories_segments":[],"categories_sizes":[],"default_left":[1,0,0,0,0,0,0,0,0,0,0,0,0,0,0,0,0,0,0,0,0,0,0,0,0,0,0,0,0],"id":37,"left_children":[1,3,5,7,9,11,13,15,17,19,21,23,25,-1,27,-1,-1,-1,-1,-1,-1,-1,-1,-1,-1,-1,-1,-1,-1],"loss_changes":[8.363332E8,8.994019E7,2.1072051E8,3.7704384E7,5.726124E7,2.0995138E8,4.927473E8,2.8185632E7,1.3216936E7,1.5978664E8,6.933461E7,7.934435E7,2.8596243E8,0E0,2.9492832E8,0E0,0E0,0E0,0E0,0E0,0E0,0E0,0E0,0E0,0E0,0E0,0E0,0E0,0E0],"parents":[2147483647,0,0,1,1,2,2,3,3,4,4,5,5,6,6,7,7,8,8,9,9,10,10,11,11,12,12,14,14],"right_children":[2,4,6,8,10,12,14,16,18,20,22,24,26,-1,28,-1,-1,-1,-1,-1,-1,-1,-1,-1,-1,-1,-1,-1,-1],"split_conditions":[1.3832E4,1.1226E4,1.71E2,9.773E3,1.29E2,1.61E2,1.5547E4,1.0406088E3,1.0702E4,1.1E1,1.2E1,1.5986E4,1.194E4,4.711581E2,1.1863818E2,-4.4802486E1,-9.700843E1,-2.0103905E1,-4.172865E1,-7.2649903E0,1.2848201E2,-1.9559324E1,-1.5133792E2,9.889698E0,4.583494E1,2.8076483E2,-3.8361566E2,6.479134E2,5.785192E1],"split_indices":[2,1,7,0,6,7,3,5,1,10,10,0,0,0,5,0,0,0,0,0,0,0,0,0,0,0,0,0,0],"split_type":[0,0,0,0,0,0,0,0,0,0,0,0,0,0,0,0,0,0,0,0,0,0,0,0,0,0,0,0,0],"sum_hessian":[8.8E2,5.23E2,3.57E2,3.67E2,1.56E2,3.13E2,4.4E1,2.01E2,1.66E2,7.9E1,7.7E1,3.09E2,4E0,4E0,4E1,1.88E2,1.3E1,1.2E2,4.6E1,6.7E1,1.2E1,7.2E1,5E0,1.15E2,1.94E2,1E0,3E0,1E0,3.9E1],"tree_param":{"num_deleted":"0","num_feature":"12","num_nodes":"29","size_leaf_vector":"1"}},{"base_weights":[4.8433712E1,-8.537277E2,1.106688E3,-1.459714E3,-5.5554694E2,-1.605886E3,1.2445856E3,1.6769772E3,-1.5231239E3,-5.183518E2,-4.316993E3,-3.6346463E2,-1.0935759E3,1.4017687E3,-2.7770905E2,1.16227646E2,-5.9864956E1,-4.9425095E1,-1.0124814E2,-1.2397197E1,-4.975602E1,-1.7541481E1,-2.1230504E2,-2.0141998E1,-8.2309235E1,3.9953663E1,1.3463625E2,4.481451E0,-4.7542752E2],"categories":[],"categories_nodes":[],"categories_segments":[],"categories_sizes":[],"default_left":[0,0,0,0,0,0,0,0,0,0,0,0,1,0,0,0,0,0,0,0,0,0,0,0,0,0,0,0,0],"id":38,"left_children":[1,3,5,7,9,11,13,15,17,19,21,-1,23,25,27,-1,-1,-1,-1,-1,-1,-1,-1,-1,-1,-1,-1,-1,-1],"loss_changes":[8.1537043E8,8.328144E7,1.4705651E8,3.0293376E7,4.3174616E7,8.7375416E7,8.950675E7,1.7855568E7,1.7282656E7,4.473883E7,2.1480496E7,0E0,1.1884422E7,2.023264E8,1.9443462E8,0E0,0E0,0E0,0E0,0E0,0E0,0E0,0E0,0E0,0E0,0E0,0E0,0E0,0E0],"parents":[2147483647,0,0,1,1,2,2,3,3,4,4,5,5,6,6,7,7,8,8,9,9,10,10,12,12,13,13,14,14],"right_children":[2,4,6,8,10,12,14,16,18,20,22,-1,24,26,28,-1,-1,-1,-1,-1,-1,-1,-1,-1,-1,-1,-1,-1,-1],"split_conditions":[1.3205E4,8.978E3,1.2527E4,6.361E3,1.318E4,2.0152298E2,1.2E1,6.886E3,1.0406088E3,9.219517E2,1.2501E4,-3.6346463E2,1.55074E4,1.1E1,2.1343E4,1.16227646E2,-5.9864956E1,-4.9425095E1,-1.0124814E2,-1.2397197E1,-4.975602E1,-1.7541481E1,-2.1230504E2,-2.0141998E1,-8.2309235E1,3.9953663E1,1.3463625E2,4.481451E0,-4.7542752E2],"split_indices":[0,0,3,2,0,5,10,0,5,5,1,0,4,10,1,0,0,0,0,0,0,0,0,0,0,0,0,0,0],"split_type":[0,0,0,0,0,0,0,0,0,0,0,0,0,0,0,0,0,0,0,0,0,0,0,0,0,0,0,0,0],"sum_hessian":[8.54E2,4.61E2,3.93E2,1.52E2,3.09E2,1.9E1,3.74E2,3E0,1.49E2,3.06E2,3E0,1E0,1.8E1,3.39E2,3.5E1,2E0,1E0,1.41E2,8E0,2.62E2,4.4E1,1E0,2E0,1.3E1,5E0,3.1E2,2.9E1,3.4E1,1E0],"tree_param":{"num_deleted":"0","num_feature":"12","num_nodes":"29","size_leaf_vector":"1"}},{"base_weights":[-1.7498343E1,-9.2436615E2,1.01891034E3,-7.9157263E2,-1.8531997E3,5.0465967E2,1.9443192E3,-1.0085812E3,-1.4921149E2,-3.5305252E2,-1.695532E3,-1.2413514E3,6.717825E2,4.790043E3,1.793752E3,-4.801267E1,-2.0676802E1,-1.3393047E1,6.840916E1,-7.6408325E1,-1.3541632E1,-2.1917965E1,-5.678613E1,2.7874395E1,-3.0696308E1,1.1667694E2,4.407528E2,1.5732202E2,5.4519367E1],"categories":[],"categories_nodes":[],"categories_segments":[],"categories_sizes":[],"default_left":[0,0,0,0,0,0,0,0,0,0,0,1,1,0,0,0,0,0,0,0,0,0,0,0,0,0,0,0,0],"id":39,"left_children":[1,3,5,7,9,11,13,15,17,-1,19,21,23,25,27,-1,-1,-1,-1,-1,-1,-1,-1,-1,-1,-1,-1,-1,-1],"loss_changes":[7.8954566E8,5.522227E7,1.8653338E8,5.4641296E7,7.417043E7,7.355704E7,5.979069E7,4.652797E7,5.1276264E7,0E0,3.811587E7,5.472568E6,5.091304E7,7.754646E7,7.553069E7,0E0,0E0,0E0,0E0,0E0,0E0,0E0,0E0,0E0,0E0,0E0,0E0,0E0,0E0],"parents":[2147483647,0,0,1,1,2,2,3,3,4,4,5,5,6,6,7,7,8,8,10,10,11,11,12,12,13,13,14,14],"right_children":[2,4,6,8,10,12,14,16,18,-1,20,22,24,26,28,-1,-1,-1,-1,-1,-1,-1,-1,-1,-1,-1,-1,-1,-1],"split_conditions":[1.2604E4,9.219517E2,1.7452E4,4.2E1,9.4760956E2,1.1683E4,1.7526E4,2.1084454E2,1.1367792E4,-3.5305252E2,1.0517E4,1.9216423E2,1.828443E3,1.88E2,1.3919124E2,-4.801267E1,-2.0676802E1,-1.3393047E1,6.840916E1,-7.6408325E1,-1.3541632E1,-2.1917965E1,-5.678613E1,2.7874395E1,-3.0696308E1,1.1667694E2,4.407528E2,1.5732202E2,5.4519367E1],"split_indices":[3,5,0,7,5,0,0,5,4,0,3,5,5,6,5,0,0,0,0,0,0,0,0,0,0,0,0,0,0],"split_type":[0,0,0,0,0,0,0,0,0,0,0,0,0,0,0,0,0,0,0,0,0,0,0,0,0,0,0,0,0],"sum_hessian":[8.4E2,4.48E2,3.92E2,3.92E2,5.6E1,2.52E2,1.4E2,2.93E2,9.9E1,1E0,5.5E1,2.2E1,2.3E2,7E0,1.33E2,1.49E2,1.44E2,8.9E1,1E1,3.9E1,1.6E1,9E0,1.3E1,2.11E2,1.9E1,6E0,1E0,9E0,1.24E2],"tree_param":{"num_deleted":"0","num_feature":"12","num_nodes":"29","size_leaf_vector":"1"}},{"base_weights":[-4.011988E1,-6.6583484E2,1.1825411E3,-1.4105294E3,-4.1975714E2,-4.904754E2,1.3450621E3,-1.2943926E3,-4.711165E3,-6.103016E2,1.5186517E2,-1.5897225E3,-1.7495457E2,3.8347903E2,1.2728579E3,-5.5623035E1,-2.740125E1,-6.562802E1,-3.030409E2,-1.6002014E1,-4.779339E1,9.67067E0,-1.1468246E2,-3.1573841E1,-9.948291E1,-1.2178176E1,5.21598E1,4.9641647E1,-1.6582634E1],"categories":[],"categories_nodes":[],"categories_segments":[],"categories_sizes":[],"default_left":[1,0,0,1,0,0,0,1,0,0,0,0,0,0,0,0,0,0,0,0,0,0,0,0,0,0,0,0,0],"id":40,"left_children":[1,3,5,7,9,11,13,15,17,19,21,23,25,-1,27,-1,-1,-1,-1,-1,-1,-1,-1,-1,-1,-1,-1,-1,-1],"loss_changes":[6.8933203E8,1.092057E8,8.295213E7,5.6592384E7,4.880135E7,9.362402E6,1.9717837E8,2.3190256E7,5.757957E7,3.779116E7,5.1010424E7,5.216346E6,6.4365065E6,0E0,8.485712E7,0E0,0E0,0E0,0E0,0E0,0E0,0E0,0E0,0E0,0E0,0E0,0E0,0E0,0E0],"parents":[2147483647,0,0,1,1,2,2,3,3,4,4,5,5,6,6,7,7,8,8,9,9,10,10,11,11,12,12,14,14],"right_children":[2,4,6,8,10,12,14,16,18,20,22,24,26,-1,28,-1,-1,-1,-1,-1,-1,-1,-1,-1,-1,-1,-1,-1,-1],"split_conditions":[1.4626E4,8.683E3,1.4022E4,1.0406088E3,1.2797E4,2E0,1.3196E4,1.976374E2,8.242E3,9.219517E2,1.2E1,1.3762E4,1E1,3.8347903E2,1.2E1,-5.5623035E1,-2.740125E1,-6.562802E1,-3.030409E2,-1.6002014E1,-4.779339E1,9.67067E0,-1.1468246E2,-3.1573841E1,-9.948291E1,-1.2178176E1,5.21598E1,4.9641647E1,-1.6582634E1],"split_indices":[3,0,0,5,2,10,2,5,0,5,10,0,10,0,10,0,0,0,0,0,0,0,0,0,0,0,0,0,0],"split_type":[0,0,0,0,0,0,0,0,0,0,0,0,0,0,0,0,0,0,0,0,0,0,0,0,0,0,0,0,0],"sum_hessian":[9.01E2,5.96E2,3.05E2,1.48E2,4.48E2,2.7E1,2.78E2,1.43E2,5E0,3.36E2,1.12E2,6E0,2.1E1,2E0,2.76E2,8.6E1,5.7E1,3E0,2E0,2.84E2,5.2E1,1.08E2,4E0,4E0,2E0,1.9E1,2E0,2.51E2,2.5E1],"tree_param":{"num_deleted":"0","num_feature":"12","num_nodes":"29","size_leaf_vector":"1"}},{"base_weights":[2.1631893E1,-6.770192E2,1.2945426E3,-9.569109E2,1.00678955E2,1.1273262E3,3.1120278E3,-1.470536E3,-6.943689E2,1.5270598E3,-1.3354521E2,1.2919668E3,-9.2585504E2,2.3855625E3,7.139888E2,-5.357686E1,5.6609493E1,-4.671625E1,-2.077398E1,2.3589241E1,3.2235397E2,-2.5278517E1,9.58646E0,1.2997297E1,5.319337E1,9.506702E0,-4.1945578E2,6.179008E2,5.8900043E1],"categories":[],"categories_nodes":[],"categories_segments":[],"categories_sizes":[],"default_left":[0,1,1,0,0,1,0,0,0,0,0,0,0,0,0,0,0,0,0,0,0,0,0,0,0,0,0,0,0],"id":41,"left_children":[1,3,5,7,9,11,13,15,17,19,21,23,25,27,-1,-1,-1,-1,-1,-1,-1,-1,-1,-1,-1,-1,-1,-1,-1],"loss_changes":[7.7552806E8,1.225577E8,9.382909E7,5.580285E7,4.9794724E7,9.569939E7,3.3368022E8,4.0305984E7,1.6176624E7,1.3873578E8,3.193753E7,6.2046656E7,2.8610643E8,2.6050283E8,0E0,0E0,0E0,0E0,0E0,0E0,0E0,0E0,0E0,0E0,0E0,0E0,0E0,0E0,0E0],"parents":[2147483647,0,0,1,1,2,2,3,3,4,4,5,5,6,6,7,7,8,8,9,9,10,10,11,11,12,12,13,13],"right_children":[2,4,6,8,10,12,14,16,18,20,22,24,26,28,-1,-1,-1,-1,-1,-1,-1,-1,-1,-1,-1,-1,-1,-1,-1],"split_conditions":[1.4519E4,1.1406583E4,2.0377E4,8.579E3,1.16597705E4,1.5752444E3,2.0419E4,1.88E2,8.548E3,1.09E2,1.2501E4,1.5367E4,1.8766E4,1.1863818E2,7.139888E2,-5.357686E1,5.6609493E1,-4.671625E1,-2.077398E1,2.3589241E1,3.2235397E2,-2.5278517E1,9.58646E0,1.2997297E1,5.319337E1,9.506702E0,-4.1945578E2,6.179008E2,5.8900043E1],"split_indices":[0,4,2,0,4,5,0,7,2,7,0,2,2,5,0,0,0,0,0,0,0,0,0,0,0,0,0,0,0],"split_type":[0,0,0,0,0,0,0,0,0,0,0,0,0,0,0,0,0,0,0,0,0,0,0,0,0,0,0,0,0],"sum_hessian":[8.72E2,5.63E2,3.09E2,4.14E2,1.49E2,2.83E2,2.6E1,1.4E2,2.74E2,2.1E1,1.28E2,2.62E2,2.1E1,2.5E1,1E0,1.36E2,4E0,3.2E1,2.42E2,1.9E1,2E0,5.2E1,7.6E1,5.8E1,2.04E2,1.9E1,2E0,1E0,2.4E1],"tree_param":{"num_deleted":"0","num_feature":"12","num_nodes":"29","size_leaf_vector":"1"}},{"base_weights":[-5.237945E1,-8.6496356E2,7.677087E2,-1.3443218E3,-5.8248444E2,4.9549237E2,2.4924102E3,-1.194818E3,-3.3898523E3,-7.6134814E2,3.5641278E2,5.251918E2,-3.5488388E2,1.4290873E4,1.8548844E3,-7.3390144E1,-3.737812E1,-7.66447E1,-2.9150443E2,6.3806763E1,-2.7694782E1,-2.2714808E0,3.1325513E2,-2.0319343E0,2.84759E1,3.576609E2,5.514463E2,1.170263E2,1.899108E0],"categories":[],"categories_nodes":[],"categories_segments":[],"categories_sizes":[],"default_left":[0,0,0,0,0,0,0,0,0,0,0,0,0,0,0,0,0,0,0,0,0,0,0,0,0,0,0,0,0],"id":42,"left_children":[1,3,5,7,9,11,13,15,17,19,21,23,-1,25,27,-1,-1,-1,-1,-1,-1,-1,-1,-1,-1,-1,-1,-1,-1],"loss_changes":[5.7978963E8,5.9155136E7,2.0326672E8,4.9449024E7,4.619265E7,1.2058044E8,4.4333117E8,1.4887296E7,6.460411E7,2.8138512E7,1.6339733E8,6.657004E7,0E0,1.7118016E7,1.570831E8,0E0,0E0,0E0,0E0,0E0,0E0,0E0,0E0,0E0,0E0,0E0,0E0,0E0,0E0],"parents":[2147483647,0,0,1,1,2,2,3,3,4,4,5,5,6,6,7,7,8,8,9,9,10,10,11,11,13,13,14,14],"right_children":[2,4,6,8,10,12,14,16,18,20,22,24,-1,26,28,-1,-1,-1,-1,-1,-1,-1,-1,-1,-1,-1,-1,-1,-1],"split_conditions":[1.2133E4,8.778E3,1.71E2,1.2E1,1.1E1,1.7E2,1.4231163E2,2E0,1.0406088E3,8.838E3,1.2591E4,1.4651E4,-3.5488388E2,1.0292E4,2.08E2,-7.3390144E1,-3.737812E1,-7.66447E1,-2.9150443E2,6.3806763E1,-2.7694782E1,-2.2714808E0,3.1325513E2,-2.0319343E0,2.84759E1,3.576609E2,5.514463E2,1.170263E2,1.899108E0],"split_indices":[2,0,7,10,10,7,5,10,5,0,1,0,0,0,7,0,0,0,0,0,0,0,0,0,0,0,0,0,0],"split_type":[0,0,0,0,0,0,0,0,0,0,0,0,0,0,0,0,0,0,0,0,0,0,0,0,0,0,0,0,0],"sum_hessian":[8.7E2,4.37E2,4.33E2,1.62E2,2.75E2,3.74E2,5.9E1,1.51E2,1.1E1,2.31E2,4.4E1,3.73E2,1E0,3E0,5.6E1,1.5E1,1.36E2,9E0,2E0,4E0,2.27E2,4.2E1,2E0,1.28E2,2.45E2,1E0,2E0,3E1,2.6E1],"tree_param":{"num_deleted":"0","num_feature":"12","num_nodes":"29","size_leaf_vector":"1"}},{"base_weights":[-2.8703415E1,-7.2919836E2,8.951753E2,-1.0119484E3,-1.9055174E2,5.8497375E2,1.8321324E3,-1.35004E3,-7.245195E2,-1.2671991E2,-5.4278413E3,4.5712918E2,2.8223762E3,2.779687E3,2.148932E2,-4.043939E1,-1.2614298E2,-2.8070484E1,1.8449331E1,1.1308338E1,-3.199379E1,-1.5194311E1,-3.5288705E2,1.8976364E1,-4.3003887E1,2.7653439E1,2.856164E2,4.3652234E2,7.65238E1,-7.431992E1,3.681841E1],"categories":[],"categories_nodes":[],"categories_segments":[],"categories_sizes":[],"default_left":[0,0,0,0,0,0,0,0,0,0,0,0,0,0,0,0,0,0,0,0,0,0,0,0,0,0,0,0,0,0,0],"id":43,"left_children":[1,3,5,7,9,11,13,15,17,19,21,23,25,27,29,-1,-1,-1,-1,-1,-1,-1,-1,-1,-1,-1,-1,-1,-1,-1,-1],"loss_changes":[5.5530246E8,7.432014E7,1.0751645E8,3.10728E7,5.6143916E7,7.948983E7,1.4099744E8,5.830603E7,2.0585384E7,6.1130216E7,4.8911216E7,4.3376804E7,1.6662374E8,3.1565293E8,6.967437E7,0E0,0E0,0E0,0E0,0E0,0E0,0E0,0E0,0E0,0E0,0E0,0E0,0E0,0E0,0E0,0E0],"parents":[2147483647,0,0,1,1,2,2,3,3,4,4,5,5,6,6,7,7,8,8,9,9,10,10,11,11,12,12,13,13,14,14],"right_children":[2,4,6,8,10,12,14,16,18,20,22,24,26,28,30,-1,-1,-1,-1,-1,-1,-1,-1,-1,-1,-1,-1,-1,-1,-1,-1],"split_conditions":[1.3205E4,1.0869E4,1.8458E4,8.882E3,1.318E4,1.95E2,1.0625507E3,1.2E1,1.2E1,4.1633246E2,1.2501E4,1.67E2,1.804E4,1.5367E4,1.7820146E4,-4.043939E1,-1.2614298E2,-2.8070484E1,1.8449331E1,1.1308338E1,-3.199379E1,-1.5194311E1,-3.5288705E2,1.8976364E1,-4.3003887E1,2.7653439E1,2.856164E2,4.3652234E2,7.65238E1,-7.431992E1,3.681841E1],"split_indices":[0,1,1,3,0,7,5,10,10,5,1,7,2,3,4,0,0,0,0,0,0,0,0,0,0,0,0,0,0,0,0],"split_type":[0,0,0,0,0,0,0,0,0,0,0,0,0,0,0,0,0,0,0,0,0,0,0,0,0,0,0,0,0,0,0],"sum_hessian":[8.58E2,4.88E2,3.7E2,3.2E2,1.68E2,2.78E2,9.2E1,1.47E2,1.73E2,1.66E2,2E0,2.63E2,1.5E1,5.8E1,3.4E1,1.37E2,1E1,1.61E2,1.2E1,1.06E2,6E1,1E0,1E0,2.49E2,1.4E1,1.1E1,4E0,3E0,5.5E1,9E0,2.5E1],"tree_param":{"num_deleted":"0","num_feature":"12","num_nodes":"31","size_leaf_vector":"1"}},{"base_weights":[2.2801521E1,-6.349683E2,1.1659886E3,-9.365187E2,-1.6630327E2,7.3638824E2,2.7425278E3,-6.6423334E2,-1.2570126E3,-7.132018E0,-2.4250566E3,9.0480505E2,-1.6823665E3,1.424097E4,2.198741E3,-1.7743204E1,-8.194189E1,-3.8737087E1,-9.880867E1,3.552466E0,-8.022229E1,-3.1304823E1,-3.9039514E2,1.6323881E1,6.912765E1,5.562887E1,-2.4605446E2,3.7272498E2,5.412742E2,3.7291345E2,7.053349E1],"categories":[],"categories_nodes":[],"categories_segments":[],"categories_sizes":[],"default_left":[1,0,0,0,0,0,0,0,0,0,0,0,0,0,0,0,0,0,0,0,0,0,0,0,0,0,0,0,0,0,0],"id":44,"left_children":[1,3,5,7,9,11,13,15,17,19,21,23,25,27,29,-1,-1,-1,-1,-1,-1,-1,-1,-1,-1,-1,-1,-1,-1,-1,-1],"loss_changes":[6.4445894E8,7.687875E7,2.1195213E8,2.8864352E7,7.658212E7,1.0025165E8,4.1833872E8,4.529835E7,3.1341312E7,5.1421844E7,1.8973757E8,1.0956693E8,2.9118515E8,1.1868032E7,7.812384E7,0E0,0E0,0E0,0E0,0E0,0E0,0E0,0E0,0E0,0E0,0E0,0E0,0E0,0E0,0E0,0E0],"parents":[2147483647,0,0,1,1,2,2,3,3,4,4,5,5,6,6,7,7,8,8,9,9,10,10,11,11,12,12,13,13,14,14],"right_children":[2,4,6,8,10,12,14,16,18,20,22,24,26,28,30,-1,-1,-1,-1,-1,-1,-1,-1,-1,-1,-1,-1,-1,-1,-1,-1],"split_conditions":[1.4626E4,1.1148E4,1.893E4,1.13E2,1.2E1,1.2E1,1.3919124E2,9.219517E2,1.2E1,1.8247E4,1.4449E4,1.7398E4,1.7658E4,1.9152E4,1.3196E4,-1.7743204E1,-8.194189E1,-3.8737087E1,-9.880867E1,3.552466E0,-8.022229E1,-3.1304823E1,-3.9039514E2,1.6323881E1,6.912765E1,5.562887E1,-2.4605446E2,3.7272498E2,5.412742E2,3.7291345E2,7.053349E1],"split_indices":[3,1,1,6,10,10,5,5,10,1,1,1,1,1,2,0,0,0,0,0,0,0,0,0,0,0,0,0,0,0,0],"split_type":[0,0,0,0,0,0,0,0,0,0,0,0,0,0,0,0,0,0,0,0,0,0,0,0,0,0,0,0,0,0,0],"sum_hessian":[8.57E2,5.44E2,3.13E2,3.31E2,2.13E2,2.46E2,6.7E1,1.79E2,1.52E2,1.99E2,1.4E1,2.3E2,1.6E1,3E0,6.4E1,1.65E2,1.4E1,1.41E2,1.1E1,1.9E2,9E0,1.2E1,2E0,1.66E2,6.4E1,1E1,6E0,1E0,2E0,1E0,6.3E1],"tree_param":{"num_deleted":"0","num_feature":"12","num_nodes":"31","size_leaf_vector":"1"}},{"base_weights":[-6.112246E1,-6.242678E2,1.0400532E3,-9.2181934E2,-1.8625758E2,7.0778174E2,2.0183718E3,-8.509871E2,-1.852704E3,2.3446896E2,-7.571885E2,1.1444833E3,8.654238E1,8.491098E3,1.742271E3,-2.1685211E1,-3.9347645E1,-3.1336287E1,-1.8513673E2,-7.864919E0,1.2419138E2,-1.5633446E1,-1.8366846E2,6.325628E1,1.5948745E1,1.2311063E1,-4.0200516E1,4.392887E2,-8.228627E0,3.6022385E2,5.532967E1],"categories":[],"categories_nodes":[],"categories_segments":[],"categories_sizes":[],"default_left":[1,0,0,1,0,1,0,0,0,0,0,0,0,0,0,0,0,0,0,0,0,0,0,0,0,0,0,0,0,0,0],"id":45,"left_children":[1,3,5,7,9,11,13,15,17,19,21,23,25,27,29,-1,-1,-1,-1,-1,-1,-1,-1,-1,-1,-1,-1,-1,-1,-1,-1],"loss_changes":[5.3519267E8,7.441552E7,9.488944E7,2.2379168E7,5.549793E7,5.914383E7,1.3193632E8,2.0463936E7,7.986473E7,2.0905688E8,1.3574669E8,6.089269E7,3.089535E7,1.1412002E8,7.959941E7,0E0,0E0,0E0,0E0,0E0,0E0,0E0,0E0,0E0,0E0,0E0,0E0,0E0,0E0,0E0,0E0],"parents":[2147483647,0,0,1,1,2,2,3,3,4,4,5,5,6,6,7,7,8,8,9,9,10,10,11,11,12,12,13,13,14,14],"right_children":[2,4,6,8,10,12,14,16,18,20,22,24,26,28,30,-1,-1,-1,-1,-1,-1,-1,-1,-1,-1,-1,-1,-1,-1,-1,-1],"split_conditions":[1.4549E4,1.0945E4,1.8516E4,9.219517E2,1.13E2,4.756928E2,1.5367E4,1.13E2,6E0,1.1E1,1.2E1,1.13E2,1.67E2,1.893E4,8.1154816E1,-2.1685211E1,-3.9347645E1,-3.1336287E1,-1.8513673E2,-7.864919E0,1.2419138E2,-1.5633446E1,-1.8366846E2,6.325628E1,1.5948745E1,1.2311063E1,-4.0200516E1,4.392887E2,-8.228627E0,3.6022385E2,5.532967E1],"split_indices":[3,1,1,5,6,5,3,6,10,10,10,6,7,1,5,0,0,0,0,0,0,0,0,0,0,0,0,0,0,0,0],"split_type":[0,0,0,0,0,0,0,0,0,0,0,0,0,0,0,0,0,0,0,0,0,0,0,0,0,0,0,0,0,0,0],"sum_hessian":[8.63E2,5.71E2,2.92E2,3.4E2,2.31E2,2.18E2,7.4E1,3.16E2,2.4E1,1.33E2,9.8E1,1.28E2,9E1,3E0,7.1E1,1.82E2,1.34E2,1.9E1,5E0,1.17E2,1.6E1,9.2E1,6E0,6.3E1,6.5E1,7.4E1,1.6E1,2E0,1E0,1E0,7E1],"tree_param":{"num_deleted":"0","num_feature":"12","num_nodes":"31","size_leaf_vector":"1"}},{"base_weights":[1.5644443E1,-6.8875366E2,7.8422906E2,-6.063389E2,-1.6743987E3,-2.5886633E3,8.486134E2,-8.897638E2,-9.647383E1,-9.948724E2,-7.0744946E3,-2.749759E3,-7.129529E1,2.8045703E2,1.11769E3,-4.915714E1,-2.698038E1,-7.581954E0,7.449195E1,1.3323745E1,-1.24518105E2,-3.1400775E2,-2.5977352E1,-1.0272589E2,-8.949384E1,1.04099205E2,5.203585E0,1.26380035E2,3.376237E1],"categories":[],"categories_nodes":[],"categories_segments":[],"categories_sizes":[],"default_left":[0,0,0,0,0,1,0,0,0,0,0,0,0,1,0,0,0,0,0,0,0,0,0,0,0,0,0,0,0],"id":46,"left_children":[1,3,5,7,9,11,13,15,17,19,21,23,-1,25,27,-1,-1,-1,-1,-1,-1,-1,-1,-1,-1,-1,-1,-1,-1],"loss_changes":[4.8456797E8,3.790965E7,9.299517E7,6.228237E7,1.3201042E8,5.20784E5,6.420208E7,1.5469264E7,4.3574572E7,1.1685398E8,5.2770784E7,2.1276E4,0E0,4.7865916E7,9.725331E7,0E0,0E0,0E0,0E0,0E0,0E0,0E0,0E0,0E0,0E0,0E0,0E0,0E0,0E0],"parents":[2147483647,0,0,1,1,2,2,3,3,4,4,5,5,6,6,7,7,8,8,9,9,10,10,11,11,13,13,14,14],"right_children":[2,4,6,8,10,12,14,16,18,20,22,24,-1,26,28,-1,-1,-1,-1,-1,-1,-1,-1,-1,-1,-1,-1,-1,-1],"split_conditions":[1.2648E4,1.2E1,9.205E3,1.0511E4,1.62E2,1.1960833E4,1.5329E4,7.217E3,1.75E2,1.3E2,1.0517E4,7.325E3,-7.129529E1,1.0705E4,1.1863818E2,-4.915714E1,-2.698038E1,-7.581954E0,7.449195E1,1.3323745E1,-1.24518105E2,-3.1400775E2,-2.5977352E1,-1.0272589E2,-8.949384E1,1.04099205E2,5.203585E0,1.26380035E2,3.376237E1],"split_indices":[1,10,3,1,7,4,1,1,7,6,3,0,0,3,5,0,0,0,0,0,0,0,0,0,0,0,0,0,0],"split_type":[0,0,0,0,0,0,0,0,0,0,0,0,0,0,0,0,0,0,0,0,0,0,0,0,0,0,0,0,0],"sum_hessian":[8.95E2,4.67E2,4.28E2,4.31E2,3.6E1,8E0,4.2E2,2.77E2,1.54E2,3.2E1,4E0,6E0,2E0,1.35E2,2.85E2,4.4E1,2.33E2,1.46E2,8E0,2.1E1,1.1E1,3E0,1E0,2E0,4E0,6E0,1.29E2,1.4E1,2.71E2],"tree_param":{"num_deleted":"0","num_feature":"12","num_nodes":"29","size_leaf_vector":"1"}},{"base_weights":[-4.0060353E0,-6.163947E2,9.9359283E2,-1.2572054E3,-3.841782E2,5.96147E2,1.6505507E3,-1.1637803E3,-2.5221724E3,-3.008908E2,-1.2073152E3,7.655905E2,-2.1957378E3,1.2031344E3,4.3549556E3,-4.6767807E1,-3.1190126E1,-6.677184E1,-2.5843387E2,-2.2180767E1,-2.6190178E0,-3.1827258E2,-3.3509735E1,1.7100605E1,1.4626881E2,1.6482184E0,-3.044178E2,4.6383797E1,-2.3078517E2,3.0530664E2,7.089468E1],"categories":[],"categories_nodes":[],"categories_segments":[],"categories_sizes":[],"default_left":[0,0,0,0,1,0,0,0,0,0,0,0,0,0,0,0,0,0,0,0,0,0,0,0,0,0,0,0,0,0,0],"id":47,"left_children":[1,3,5,7,9,11,13,15,17,19,21,23,25,27,29,-1,-1,-1,-1,-1,-1,-1,-1,-1,-1,-1,-1,-1,-1,-1,-1],"loss_changes":[5.4130003E8,8.16841E7,8.797168E7,1.718384E7,2.7618736E7,9.9388984E7,1.5356803E8,6.88856E6,2.8540936E7,2.8432108E7,6.853152E7,1.849056E8,1.8030331E8,1.2967538E8,1.8710762E8,0E0,0E0,0E0,0E0,0E0,0E0,0E0,0E0,0E0,0E0,0E0,0E0,0E0,0E0,0E0,0E0],"parents":[2147483647,0,0,1,1,2,2,3,3,4,4,5,5,6,6,7,7,8,8,9,9,10,10,11,11,12,12,13,13,14,14],"right_children":[2,4,6,8,10,12,14,16,18,20,22,24,26,28,30,-1,-1,-1,-1,-1,-1,-1,-1,-1,-1,-1,-1,-1,-1,-1,-1],"split_conditions":[1.4519E4,8.579E3,1.7825E4,1.2E1,9.219517E2,1.2E1,1.81E2,2E1,1.0406088E3,1.0384E4,9.4760956E2,1.1E1,1.7658E4,1.77E2,1.7946E4,-4.6767807E1,-3.1190126E1,-6.677184E1,-2.5843387E2,-2.2180767E1,-2.6190178E0,-3.1827258E2,-3.3509735E1,1.7100605E1,1.4626881E2,1.6482184E0,-3.044178E2,4.6383797E1,-2.3078517E2,3.0530664E2,7.089468E1],"split_indices":[1,0,2,10,5,10,7,7,5,2,5,10,1,7,3,0,0,0,0,0,0,0,0,0,0,0,0,0,0,0,0],"split_type":[0,0,0,0,0,0,0,0,0,0,0,0,0,0,0,0,0,0,0,0,0,0,0,0,0,0,0,0,0,0,0],"sum_hessian":[8.86E2,5.49E2,3.37E2,1.46E2,4.03E2,2.1E2,1.27E2,1.36E2,1E1,3.66E2,3.7E1,1.98E2,1.2E1,1.09E2,1.8E1,7.6E1,6E1,9E0,1E0,1.44E2,2.22E2,1E0,3.6E1,1.84E2,1.4E1,9E0,3E0,1.07E2,2E0,6E0,1.2E1],"tree_param":{"num_deleted":"0","num_feature":"12","num_nodes":"31","size_leaf_vector":"1"}},{"base_weights":[-2.1300863E1,-7.652673E2,6.6147296E2,-1.1253713E3,-5.425229E2,4.551601E2,1.8162833E3,-1.045883E2,-1.1853798E3,1.6254862E3,-5.762809E2,-5.082375E1,1.129735E3,3.7244807E3,-7.2878534E2,9.3006E1,-3.1401243E1,-1.4003574E2,-3.9305244E1,-1.3533096E1,2.593681E2,-1.7399057E1,-4.7784393E1,-4.5088287E1,4.453724E0,1.0264643E2,2.9589876E1,1.9653554E2,4.342429E1,-1.2412298E2,5.2718287E0],"categories":[],"categories_nodes":[],"categories_segments":[],"categories_sizes":[],"default_left":[0,0,0,1,0,0,0,0,0,0,0,0,0,0,0,0,0,0,0,0,0,0,0,0,0,0,0,0,0,0,0],"id":48,"left_children":[1,3,5,7,9,11,13,15,17,19,21,23,25,27,29,-1,-1,-1,-1,-1,-1,-1,-1,-1,-1,-1,-1,-1,-1,-1,-1],"loss_changes":[4.5007606E8,3.3994224E7,1.1005472E8,9.919312E6,1.9195448E7,1.3381013E8,3.4012934E8,2.0671676E7,1.7187792E7,4.834203E7,1.4495136E7,5.1188716E7,8.347099E7,1.9732442E8,7.662934E7,0E0,0E0,0E0,0E0,0E0,0E0,0E0,0E0,0E0,0E0,0E0,0E0,0E0,0E0,0E0,0E0],"parents":[2147483647,0,0,1,1,2,2,3,3,4,4,5,5,6,6,7,7,8,8,9,9,10,10,11,11,12,12,13,13,14,14],"right_children":[2,4,6,8,10,12,14,16,18,20,22,24,26,28,30,-1,-1,-1,-1,-1,-1,-1,-1,-1,-1,-1,-1,-1,-1,-1,-1],"split_conditions":[1.1775E4,8.786E3,1.1E1,6.494E3,8.85E3,1.6495E4,1.13E2,6.535E3,6.535E3,9.93E3,1.63E2,1.0948E4,1.3919124E2,1.2E1,1.46E2,9.3006E1,-3.1401243E1,-1.4003574E2,-3.9305244E1,-1.3533096E1,2.593681E2,-1.7399057E1,-4.7784393E1,-4.5088287E1,4.453724E0,1.0264643E2,2.9589876E1,1.9653554E2,4.342429E1,-1.2412298E2,5.2718287E0],"split_indices":[1,2,10,3,2,3,6,2,3,1,7,3,5,10,6,0,0,0,0,0,0,0,0,0,0,0,0,0,0,0,0],"split_type":[0,0,0,0,0,0,0,0,0,0,0,0,0,0,0,0,0,0,0,0,0,0,0,0,0,0,0,0,0,0,0],"sum_hessian":[8.86E2,4.24E2,4.62E2,1.62E2,2.62E2,3.92E2,7E1,9E0,1.53E2,4E0,2.58E2,2.24E2,1.68E2,4E1,3E1,2E0,7E0,2E0,1.51E2,3E0,1E0,2.38E2,2E1,2.8E1,1.96E2,2.1E1,1.47E2,2.2E1,1.8E1,7E0,2.3E1],"tree_param":{"num_deleted":"0","num_feature":"12","num_nodes":"31","size_leaf_vector":"1"}},{"base_weights":[7.5589623E0,-6.3189075E2,5.703373E2,-1.195664E3,-4.2832968E2,1.0013263E3,1.0272873E2,-1.3025006E3,-6.1641907E2,-5.152262E2,6.7693445E2,4.603686E2,3.2559048E3,4.8600635E2,-1.1335294E3,-2.2441734E1,-4.8305943E1,2.0352692E1,-3.3918793E1,-1.5518748E1,-1.15261925E2,1.565042E2,-2.6919176E1,4.0937443E0,4.2917736E1,1.3528668E2,-4.1614957E2,1.2474247E0,4.308015E1,-1.2978793E2,-1.2195491E1],"categories":[],"categories_nodes":[],"categories_segments":[],"categories_sizes":[],"default_left":[0,0,0,0,0,0,0,0,0,0,0,0,0,1,0,0,0,0,0,0,0,0,0,0,0,0,0,0,0,0,0],"id":49,"left_children":[1,3,5,7,9,11,13,15,17,19,21,23,25,27,29,-1,-1,-1,-1,-1,-1,-1,-1,-1,-1,-1,-1,-1,-1,-1,-1],"loss_changes":[3.1598038E8,4.7155056E7,9.411634E7,6.724928E6,2.901474E7,2.9635654E8,1.061594E8,6.318704E6,7.6936955E6,4.9861584E7,1.2526162E8,5.2887056E7,5.003858E8,5.9241804E7,1.0933092E8,0E0,0E0,0E0,0E0,0E0,0E0,0E0,0E0,0E0,0E0,0E0,0E0,0E0,0E0,0E0,0E0],"parents":[2147483647,0,0,1,1,2,2,3,3,4,4,5,5,6,6,7,7,8,8,9,9,10,10,11,11,12,12,13,13,14,14],"right_children":[2,4,6,8,10,12,14,16,18,20,22,24,26,28,30,-1,-1,-1,-1,-1,-1,-1,-1,-1,-1,-1,-1,-1,-1,-1,-1],"split_conditions":[1.1775E4,8.156E3,1.13E2,8.595E3,1.73E2,1.1E1,1E1,6.756104E3,5E0,1.63E2,2.0442563E2,8E0,2.0968274E3,1.6773438E4,1.48E2,-2.2441734E1,-4.8305943E1,2.0352692E1,-3.3918793E1,-1.5518748E1,-1.15261925E2,1.565042E2,-2.6919176E1,4.0937443E0,4.2917736E1,1.3528668E2,-4.1614957E2,1.2474247E0,4.308015E1,-1.2978793E2,-1.2195491E1],"split_indices":[1,1,6,0,7,10,10,4,7,7,5,10,5,4,6,0,0,0,0,0,0,0,0,0,0,0,0,0,0,0,0],"split_type":[0,0,0,0,0,0,0,0,0,0,0,0,0,0,0,0,0,0,0,0,0,0,0,0,0,0,0,0,0,0,0],"sum_hessian":[8.78E2,4.11E2,4.67E2,1.09E2,3.02E2,2.43E2,2.24E2,9.2E1,1.7E1,2.8E2,2.2E1,1.96E2,4.7E1,1.71E2,5.3E1,1.3E1,7.9E1,4E0,1.3E1,2.74E2,6E0,6E0,1.6E1,1.37E2,5.9E1,4.5E1,2E0,1.08E2,6.3E1,1.2E1,4.1E1],"tree_param":{"num_deleted":"0","num_feature":"12","num_nodes":"31","size_leaf_vector":"1"}},{"base_weights":[-1.990281E1,-6.782649E2,6.89936E2,-6.5512823E2,-4.1329956E3,5.2346954E2,2.5879644E3,-6.861905E2,1.6474884E3,-1.4420453E3,-3.2106787E2,6.218228E2,-1.7607992E3,1.4052043E4,1.4691818E3,-3.441068E1,-1.8228077E1,6.4684315E0,3.0092096E2,-1.0589518E2,8.016316E0,1.1015073E1,3.919733E1,1.3290962E1,-3.7734732E2,4.4802304E2,5.3804565E2,2.2719868E2,1.6200308E1],"categories":[],"categories_nodes":[],"categories_segments":[],"categories_sizes":[],"default_left":[0,0,0,0,0,0,0,0,0,0,0,0,1,0,0,0,0,0,0,0,0,0,0,0,0,0,0,0,0],"id":50,"left_children":[1,3,5,7,9,11,13,15,17,19,-1,21,23,25,27,-1,-1,-1,-1,-1,-1,-1,-1,-1,-1,-1,-1,-1,-1],"loss_changes":[4.0987E8,3.630011E7,1.3330462E8,3.235384E7,4.2221268E7,8.719709E7,4.358711E8,2.1866416E7,6.2577296E7,5.6019825E6,0E0,5.828912E7,3.183529E8,2.58816E5,1.5937547E8,0E0,0E0,0E0,0E0,0E0,0E0,0E0,0E0,0E0,0E0,0E0,0E0,0E0,0E0],"parents":[2147483647,0,0,1,1,2,2,3,3,4,4,5,5,6,6,7,7,8,8,9,9,11,11,12,12,13,13,14,14],"right_children":[2,4,6,8,10,12,14,16,18,20,-1,22,24,26,28,-1,-1,-1,-1,-1,-1,-1,-1,-1,-1,-1,-1,-1,-1],"split_conditions":[1.2376E4,1.2338E4,1.87E2,1.2175E4,1.0123E4,1.69E2,2.2984833E2,8.561E3,3.4E1,1.0096E4,-3.2106787E2,1.7357E4,1.4989468E3,1.7002E4,1.5547E4,-3.441068E1,-1.8228077E1,6.4684315E0,3.0092096E2,-1.0589518E2,8.016316E0,1.1015073E1,3.919733E1,1.3290962E1,-3.7734732E2,4.4802304E2,5.3804565E2,2.2719868E2,1.6200308E1],"split_indices":[1,1,7,1,0,7,5,0,7,0,0,1,5,0,3,0,0,0,0,0,0,0,0,0,0,0,0,0,0],"split_type":[0,0,0,0,0,0,0,0,0,0,0,0,0,0,0,0,0,0,0,0,0,0,0,0,0,0,0,0,0],"sum_hessian":[8.77E2,4.55E2,4.22E2,4.52E2,3E0,3.88E2,3.4E1,4.46E2,6E0,2E0,1E0,3.72E2,1.6E1,3E0,3.1E1,1.46E2,3E2,5E0,1E0,1E0,1E0,2.36E2,1.36E2,1.3E1,3E0,2E0,1E0,5E0,2.6E1],"tree_param":{"num_deleted":"0","num_feature":"12","num_nodes":"29","size_leaf_vector":"1"}},{"base_weights":[1.5008414E2,-2.6406302E2,1.1314824E3,-1.0338114E3,-3.706494E1,3.5307808E3,9.5632385E2,-1.1648976E3,-2.7173688E2,-1.9594702E2,1.0268529E3,2.1370479E3,4.982986E2,6.1946406E3,8.9135046E2,-3.665826E1,-6.3258957E1,3.6272373E1,-5.9441483E1,-9.731212E0,5.3779953E1,8.008941E1,-3.3021244E1,4.9017105E1,4.2803583E2,3.279976E2,-2.0853708E1,1.8890825E1,4.9174934E1],"categories":[],"categories_nodes":[],"categories_segments":[],"categories_sizes":[],"default_left":[1,0,0,0,0,0,0,0,0,0,0,0,0,0,0,0,0,0,0,0,0,0,0,0,0,0,0,0,0],"id":51,"left_children":[1,3,5,7,9,11,13,15,17,19,21,23,-1,25,27,-1,-1,-1,-1,-1,-1,-1,-1,-1,-1,-1,-1,-1,-1],"loss_changes":[3.6297136E8,1.0973214E8,1.1129312E8,1.4277504E7,8.198969E7,2.7563846E8,8.393659E7,7.894128E6,4.0906564E7,6.544194E7,1.6421952E8,1.168513E8,0E0,6.947071E7,4.5070464E7,0E0,0E0,0E0,0E0,0E0,0E0,0E0,0E0,0E0,0E0,0E0,0E0,0E0,0E0],"parents":[2147483647,0,0,1,1,2,2,3,3,4,4,5,5,6,6,7,7,8,8,9,9,10,10,11,11,13,13,14,14],"right_children":[2,4,6,8,10,12,14,16,18,20,22,24,-1,26,28,-1,-1,-1,-1,-1,-1,-1,-1,-1,-1,-1,-1,-1,-1],"split_conditions":[1.53725E4,8.548E3,1.3919124E2,1.1E1,1.1E1,1.8005812E4,1.4024E4,6.465359E2,1.13E2,1.81E2,1.13E2,1.9014E4,4.982986E2,1.5323E4,8E0,-3.665826E1,-6.3258957E1,3.6272373E1,-5.9441483E1,-9.731212E0,5.3779953E1,8.008941E1,-3.3021244E1,4.9017105E1,4.2803583E2,3.279976E2,-2.0853708E1,1.8890825E1,4.9174934E1],"split_indices":[4,2,5,10,10,4,2,5,6,7,6,2,0,3,10,0,0,0,0,0,0,0,0,0,0,0,0,0,0],"split_type":[0,0,0,0,0,0,0,0,0,0,0,0,0,0,0,0,0,0,0,0,0,0,0,0,0,0,0,0,0],"sum_hessian":[8.93E2,6.28E2,2.65E2,1.43E2,4.85E2,1.8E1,2.47E2,1.22E2,2.1E1,4.22E2,6.3E1,1.6E1,2E0,3E0,2.44E2,1.07E2,1.5E1,1.1E1,1E1,4.02E2,2E1,3.8E1,2.5E1,1.5E1,1E0,2E0,1E0,1.5E2,9.4E1],"tree_param":{"num_deleted":"0","num_feature":"12","num_nodes":"29","size_leaf_vector":"1"}},{"base_weights":[1.082559E2,-3.1439337E2,1.0873171E3,-8.2809924E2,-2.1194767E1,7.8601337E2,2.7855076E3,1.9255543E3,-8.667274E2,8.299025E1,-1.0869769E3,-2.0699363E3,8.940009E2,1.4953976E4,1.386144E3,1.2207934E2,